{"learner":{"attributes":{"scikit_learn":"{\"_estimator_type\": \"classifier\"}"},"feature_names":["Home_Points_Last5","Home_GoalsScored_Last5","Home_GoalsConceded_Last5","Away_Points_Last5","Away_GoalsScored_Last5","Away_GoalsConceded_Last5"],"feature_types":["float","float","float","float","float","float"],"gradient_booster":{"model":{"cats":{"enc":[],"feature_segments":[],"sorted_idx":[]},"gbtree_model_param":{"num_parallel_tree":"1","num_trees":"900"},"iteration_indptr":[0,3,6,9,12,15,18,21,24,27,30,33,36,39,42,45,48,51,54,57,60,63,66,69,72,75,78,81,84,87,90,93,96,99,102,105,108,111,114,117,120,123,126,129,132,135,138,141,144,147,150,153,156,159,162,165,168,171,174,177,180,183,186,189,192,195,198,201,204,207,210,213,216,219,222,225,228,231,234,237,240,243,246,249,252,255,258,261,264,267,270,273,276,279,282,285,288,291,294,297,300,303,306,309,312,315,318,321,324,327,330,333,336,339,342,345,348,351,354,357,360,363,366,369,372,375,378,381,384,387,390,393,396,399,402,405,408,411,414,417,420,423,426,429,432,435,438,441,444,447,450,453,456,459,462,465,468,471,474,477,480,483,486,489,492,495,498,501,504,507,510,513,516,519,522,525,528,531,534,537,540,543,546,549,552,555,558,561,564,567,570,573,576,579,582,585,588,591,594,597,600,603,606,609,612,615,618,621,624,627,630,633,636,639,642,645,648,651,654,657,660,663,666,669,672,675,678,681,684,687,690,693,696,699,702,705,708,711,714,717,720,723,726,729,732,735,738,741,744,747,750,753,756,759,762,765,768,771,774,777,780,783,786,789,792,795,798,801,804,807,810,813,816,819,822,825,828,831,834,837,840,843,846,849,852,855,858,861,864,867,870,873,876,879,882,885,888,891,894,897,900],"tree_info":[0,1,2,0,1,2,0,1,2,0,1,2,0,1,2,0,1,2,0,1,2,0,1,2,0,1,2,0,1,2,0,1,2,0,1,2,0,1,2,0,1,2,0,1,2,0,1,2,0,1,2,0,1,2,0,1,2,0,1,2,0,1,2,0,1,2,0,1,2,0,1,2,0,1,2,0,1,2,0,1,2,0,1,2,0,1,2,0,1,2,0,1,2,0,1,2,0,1,2,0,1,2,0,1,2,0,1,2,0,1,2,0,1,2,0,1,2,0,1,2,0,1,2,0,1,2,0,1,2,0,1,2,0,1,2,0,1,2,0,1,2,0,1,2,0,1,2,0,1,2,0,1,2,0,1,2,0,1,2,0,1,2,0,1,2,0,1,2,0,1,2,0,1,2,0,1,2,0,1,2,0,1,2,0,1,2,0,1,2,0,1,2,0,1,2,0,1,2,0,1,2,0,1,2,0,1,2,0,1,2,0,1,2,0,1,2,0,1,2,0,1,2,0,1,2,0,1,2,0,1,2,0,1,2,0,1,2,0,1,2,0,1,2,0,1,2,0,1,2,0,1,2,0,1,2,0,1,2,0,1,2,0,1,2,0,1,2,0,1,2,0,1,2,0,1,2,0,1,2,0,1,2,0,1,2,0,1,2,0,1,2,0,1,2,0,1,2,0,1,2,0,1,2,0,1,2,0,1,2,0,1,2,0,1,2,0,1,2,0,1,2,0,1,2,0,1,2,0,1,2,0,1,2,0,1,2,0,1,2,0,1,2,0,1,2,0,1,2,0,1,2,0,1,2,0,1,2,0,1,2,0,1,2,0,1,2,0,1,2,0,1,2,0,1,2,0,1,2,0,1,2,0,1,2,0,1,2,0,1,2,0,1,2,0,1,2,0,1,2,0,1,2,0,1,2,0,1,2,0,1,2,0,1,2,0,1,2,0,1,2,0,1,2,0,1,2,0,1,2,0,1,2,0,1,2,0,1,2,0,1,2,0,1,2,0,1,2,0,1,2,0,1,2,0,1,2,0,1,2,0,1,2,0,1,2,0,1,2,0,1,2,0,1,2,0,1,2,0,1,2,0,1,2,0,1,2,0,1,2,0,1,2,0,1,2,0,1,2,0,1,2,0,1,2,0,1,2,0,1,2,0,1,2,0,1,2,0,1,2,0,1,2,0,1,2,0,1,2,0,1,2,0,1,2,0,1,2,0,1,2,0,1,2,0,1,2,0,1,2,0,1,2,0,1,2,0,1,2,0,1,2,0,1,2,0,1,2,0,1,2,0,1,2,0,1,2,0,1,2,0,1,2,0,1,2,0,1,2,0,1,2,0,1,2,0,1,2,0,1,2,0,1,2,0,1,2,0,1,2,0,1,2,0,1,2,0,1,2,0,1,2,0,1,2,0,1,2,0,1,2,0,1,2,0,1,2,0,1,2,0,1,2,0,1,2,0,1,2,0,1,2,0,1,2,0,1,2,0,1,2,0,1,2,0,1,2,0,1,2,0,1,2,0,1,2,0,1,2,0,1,2,0,1,2,0,1,2,0,1,2,0,1,2,0,1,2,0,1,2,0,1,2,0,1,2,0,1,2,0,1,2,0,1,2,0,1,2,0,1,2,0,1,2,0,1,2,0,1,2,0,1,2,0,1,2,0,1,2,0,1,2,0,1,2,0,1,2,0,1,2,0,1,2,0,1,2,0,1,2,0,1,2,0,1,2,0,1,2,0,1,2,0,1,2,0,1,2,0,1,2,0,1,2,0,1,2,0,1,2,0,1,2,0,1,2,0,1,2,0,1,2,0,1,2,0,1,2,0,1,2,0,1,2,0,1,2,0,1,2,0,1,2,0,1,2,0,1,2,0,1,2,0,1,2,0,1,2,0,1,2,0,1,2,0,1,2,0,1,2,0,1,2,0,1,2,0,1,2,0,1,2,0,1,2,0,1,2,0,1,2,0,1,2,0,1,2,0,1,2,0,1,2,0,1,2,0,1,2,0,1,2,0,1,2,0,1,2,0,1,2],"trees":[{"base_weights":[-1.6416646E-4,2.3873267E-1,-1.3972636E-1,-2.1507186E-1,3.4711176E-1,-4.828729E-2,-2.973248E-1,5.495728E-1,-2.694076E-1,2.57389E-1,6.481634E-1,4.1796338E-2,-2.5142542E-1,-4.295677E-1,-2.094431E-2,7.1052455E-5,2.5826164E-2,-5.7480983E-3,-1.9504314E-2,1.2309342E-2,2.362558E-3,1.1256335E-3,2.3663094E-2,2.9757465E-3,-4.0082955E-3,-8.01694E-3,1.2948608E-2,-1.3591323E-2,1.8053342E-3,1.7575521E-2,-4.8793033E-3],"categories":[],"categories_nodes":[],"categories_segments":[],"categories_sizes":[],"default_left":[0,0,0,0,0,0,0,0,0,0,0,0,0,0,0,0,0,0,0,0,0,0,0,0,0,0,0,0,0,0,0],"id":0,"left_children":[1,3,5,7,9,11,13,15,17,19,21,23,25,27,29,-1,-1,-1,-1,-1,-1,-1,-1,-1,-1,-1,-1,-1,-1,-1,-1],"loss_changes":[2.3251968E1,1.2723333E1,6.3295383E0,2.2335987E0,5.4509506E0,5.130321E0,5.8916264E0,6.21297E-1,1.2836211E0,4.3900185E0,4.0139084E0,1.9732239E0,1.0448565E0,1.2821388E0,4.6780543E0,0E0,0E0,0E0,0E0,0E0,0E0,0E0,0E0,0E0,0E0,0E0,0E0,0E0,0E0,0E0,0E0],"parents":[2147483647,0,0,1,1,2,2,3,3,4,4,5,5,6,6,7,7,8,8,9,9,10,10,11,11,12,12,13,13,14,14],"right_children":[2,4,6,8,10,12,14,16,18,20,22,24,26,28,30,-1,-1,-1,-1,-1,-1,-1,-1,-1,-1,-1,-1,-1,-1,-1,-1],"split_conditions":[1.2E0,7.5E-1,2E0,1.25E0,2.2E0,1.75E0,1.6666666E0,1.2E0,3E0,1E0,1.6666666E0,2E0,2.75E0,3E0,8E-1,7.1052455E-5,2.5826164E-2,-5.7480983E-3,-1.9504314E-2,1.2309342E-2,2.362558E-3,1.1256335E-3,2.3663094E-2,2.9757465E-3,-4.0082955E-3,-8.01694E-3,1.2948608E-2,-1.3591323E-2,1.8053342E-3,1.7575521E-2,-4.8793033E-3],"split_indices":[0,3,1,5,3,5,4,5,5,1,4,0,2,5,5,0,0,0,0,0,0,0,0,0,0,0,0,0,0,0,0],"split_type":[0,0,0,0,0,0,0,0,0,0,0,0,0,0,0,0,0,0,0,0,0,0,0,0,0,0,0,0,0,0,0],"sum_hessian":[6.953989E2,2.5617627E2,4.3922266E2,4.9196484E1,2.069798E2,2.7878006E2,1.6044258E2,2.6592693E0,4.6537212E1,1.6088579E2,4.6094E1,1.9368346E2,8.509662E1,1.08143616E2,5.2298965E1,1.3296347E0,1.3296347E0,3.9889038E1,6.6481733E0,8.598304E1,7.4902756E1,8.864231E0,3.722977E1,1.4625981E2,4.7423637E1,8.376698E1,1.3296347E0,1.03268295E2,4.875327E0,9.307443E0,4.299152E1],"tree_param":{"num_deleted":"0","num_feature":"6","num_nodes":"31","size_leaf_vector":"1"}},{"base_weights":[-1.6528307E-1,-1.7697276E-1,1.2914984E-1,-1.9492653E-1,4.442828E-2,3.227891E-2,1.7926767E-2,-1.4377384E-1,-2.9784438E-1,4.7949132E-1,-1.014067E-1,1.9968428E-1,-3.4178993E-1,1.63617E-2,-4.7136866E-3,-4.738628E-3,-1.0456734E-2,2.6760187E-2,-2.9552702E-3,9.147695E-3,-6.4694085E-3,1.4393296E-2,-8.802614E-3,-1.6499814E-2,-7.377593E-4],"categories":[],"categories_nodes":[],"categories_segments":[],"categories_sizes":[],"default_left":[0,0,0,0,0,0,0,0,0,0,0,0,0,0,0,0,0,0,0,0,0,0,0,0,0],"id":1,"left_children":[1,3,5,7,9,11,-1,13,15,17,19,21,23,-1,-1,-1,-1,-1,-1,-1,-1,-1,-1,-1,-1],"loss_changes":[2.2924404E0,2.531393E0,1.1495135E0,3.0486794E0,3.120685E0,1.4710574E0,0E0,3.7122116E0,1.3214741E0,3.0278084E0,1.7873895E0,2.3653843E0,4.682207E-1,0E0,0E0,0E0,0E0,0E0,0E0,0E0,0E0,0E0,0E0,0E0,0E0],"parents":[2147483647,0,0,1,1,2,2,3,3,4,4,5,5,7,7,8,8,9,9,10,10,11,11,12,12],"right_children":[2,4,6,8,10,12,-1,14,16,18,20,22,24,-1,-1,-1,-1,-1,-1,-1,-1,-1,-1,-1,-1],"split_conditions":[2.8E0,2.6E0,1E0,1.8E0,1E0,2E0,1.7926767E-2,2E-1,1.2E0,2.25E0,7.5E-1,2E0,2.5E-1,1.63617E-2,-4.7136866E-3,-4.738628E-3,-1.0456734E-2,2.6760187E-2,-2.9552702E-3,9.147695E-3,-6.4694085E-3,1.4393296E-2,-8.802614E-3,-1.6499814E-2,-7.377593E-4],"split_indices":[2,3,0,0,2,5,0,3,5,0,0,3,0,0,0,0,0,0,0,0,0,0,0,0,0],"split_type":[0,0,0,0,0,0,0,0,0,0,0,0,0,0,0,0,0,0,0,0,0,0,0,0,0],"sum_hessian":[6.584109E2,6.336523E2,2.47586E1,5.862333E2,4.7419014E1,2.1401503E1,3.3570983E0,3.9320013E2,1.9303316E2,1.1330207E1,3.6088806E1,1.5106942E1,6.2945595E0,6.7141967E0,3.8648593E2,5.2454662E1,1.4057849E2,6.2945595E0,5.0356474E0,7.553471E0,2.8535336E1,9.651658E0,5.4552846E0,3.3570983E0,2.9374611E0],"tree_param":{"num_deleted":"0","num_feature":"6","num_nodes":"25","size_leaf_vector":"1"}},{"base_weights":[1.491273E-1,-7.4334815E-2,3.4474605E-1,4.1513685E-2,-3.8023224E-1,-6.088162E-2,3.9987528E-1,4.9155196E-3,5.7815975E-1,-2.4619862E-1,-5.5103636E-1,2.5642088E-1,-6.309153E-1,2.638889E-1,5.5905986E-1,3.0877532E-3,-3.8840822E-3,-3.6572765E-3,2.6367452E-2,-8.378885E-3,1.0412636E-2,-3.6572765E-3,-1.8098012E-2,2.1643661E-2,2.4197116E-3,-4.986698E-3,-2.0286657E-2,2.4996376E-2,6.6907085E-3,1.927241E-2,9.323008E-3],"categories":[],"categories_nodes":[],"categories_segments":[],"categories_sizes":[],"default_left":[0,0,0,0,0,0,0,0,0,0,0,0,0,0,0,0,0,0,0,0,0,0,0,0,0,0,0,0,0,0,0],"id":2,"left_children":[1,3,5,7,9,11,13,15,17,19,21,23,25,27,29,-1,-1,-1,-1,-1,-1,-1,-1,-1,-1,-1,-1,-1,-1,-1,-1],"loss_changes":[3.200698E1,1.2147056E1,8.751961E0,4.89141E0,2.019328E0,8.765125E0,7.293022E0,3.0992131E0,3.4550958E0,1.1681113E0,8.3602047E-1,2.4975111E0,2.5178146E-1,4.1709423E0,3.0591927E0,0E0,0E0,0E0,0E0,0E0,0E0,0E0,0E0,0E0,0E0,0E0,0E0,0E0,0E0,0E0,0E0],"parents":[2147483647,0,0,1,1,2,2,3,3,4,4,5,5,6,6,7,7,8,8,9,9,10,10,11,11,12,12,13,13,14,14],"right_children":[2,4,6,8,10,12,14,16,18,20,22,24,26,28,30,-1,-1,-1,-1,-1,-1,-1,-1,-1,-1,-1,-1,-1,-1,-1,-1],"split_conditions":[1.3333334E0,2E0,8E-1,2.8E0,2.25E0,2.2E0,2E0,2E0,6.666667E-1,2E0,1.6666666E0,8E-1,2.2E0,5E-1,1.75E0,3.0877532E-3,-3.8840822E-3,-3.6572765E-3,2.6367452E-2,-8.378885E-3,1.0412636E-2,-3.6572765E-3,-1.8098012E-2,2.1643661E-2,2.4197116E-3,-4.986698E-3,-2.0286657E-2,2.4996376E-2,6.6907085E-3,1.927241E-2,9.323008E-3],"split_indices":[0,3,5,5,3,4,0,2,4,1,4,2,3,4,3,0,0,0,0,0,0,0,0,0,0,0,0,0,0,0,0],"split_type":[0,0,0,0,0,0,0,0,0,0,0,0,0,0,0,0,0,0,0,0,0,0,0,0,0,0,0,0,0,0,0],"sum_hessian":[7.3061487E2,3.4132614E2,3.8928876E2,2.4819485E2,9.313128E1,4.656564E1,3.427231E2,2.3329385E2,1.4901005E1,5.3550488E1,3.9580795E1,3.0267666E1,1.6297974E1,1.8626256E2,1.5646056E2,1.3504036E2,9.82535E1,4.6565638E0,1.0244441E1,5.1222202E1,2.3282819E0,4.6565638E0,3.492423E1,7.4505024E0,2.2817163E1,1.8626256E0,1.44353485E1,1.1175754E1,1.750868E2,1.1594844E2,4.0512108E1],"tree_param":{"num_deleted":"0","num_feature":"6","num_nodes":"31","size_leaf_vector":"1"}},{"base_weights":[-3.8258197E-5,2.329709E-1,-1.3690235E-1,-2.1200408E-1,3.3848926E-1,-4.695333E-2,-2.9243854E-1,5.438027E-1,-2.6603937E-1,2.5157136E-1,6.2840563E-1,4.1557234E-2,-2.4726054E-1,-4.2352703E-1,-1.9855957E-2,8.057252E-5,2.5498774E-2,-5.6851613E-3,-1.929168E-2,1.2037071E-2,2.2862924E-3,1.0284255E-3,2.2923807E-2,3.332764E-6,8.365819E-3,-7.890317E-3,1.2871785E-2,-1.3406943E-2,1.8334023E-3,1.711504E-2,-4.773651E-3],"categories":[],"categories_nodes":[],"categories_segments":[],"categories_sizes":[],"default_left":[0,0,0,0,0,0,0,0,0,0,0,0,0,0,0,0,0,0,0,0,0,0,0,0,0,0,0,0,0,0,0],"id":3,"left_children":[1,3,5,7,9,11,13,15,17,19,21,23,25,27,29,-1,-1,-1,-1,-1,-1,-1,-1,-1,-1,-1,-1,-1,-1,-1,-1],"loss_changes":[2.2237616E1,1.2186835E1,6.131999E0,2.1896698E0,5.1072845E0,4.9658985E0,5.7362347E0,6.056379E-1,1.2459474E0,4.232314E0,3.8062344E0,1.9150234E0,1.0268335E0,1.2563705E0,4.469403E0,0E0,0E0,0E0,0E0,0E0,0E0,0E0,0E0,0E0,0E0,0E0,0E0,0E0,0E0,0E0,0E0],"parents":[2147483647,0,0,1,1,2,2,3,3,4,4,5,5,6,6,7,7,8,8,9,9,10,10,11,11,12,12,13,13,14,14],"right_children":[2,4,6,8,10,12,14,16,18,20,22,24,26,28,30,-1,-1,-1,-1,-1,-1,-1,-1,-1,-1,-1,-1,-1,-1,-1,-1],"split_conditions":[1.2E0,7.5E-1,2E0,1.25E0,2.2E0,1.75E0,1.6666666E0,1.2E0,3E0,1E0,1.6666666E0,2.4E0,2.75E0,3E0,8E-1,8.057252E-5,2.5498774E-2,-5.6851613E-3,-1.929168E-2,1.2037071E-2,2.2862924E-3,1.0284255E-3,2.2923807E-2,3.332764E-6,8.365819E-3,-7.890317E-3,1.2871785E-2,-1.3406943E-2,1.8334023E-3,1.711504E-2,-4.773651E-3],"split_indices":[0,3,1,5,3,5,4,5,5,1,4,4,2,5,5,0,0,0,0,0,0,0,0,0,0,0,0,0,0,0,0],"split_type":[0,0,0,0,0,0,0,0,0,0,0,0,0,0,0,0,0,0,0,0,0,0,0,0,0,0,0,0,0,0,0],"sum_hessian":[6.9530963E2,2.570254E2,4.3828424E2,4.90731E1,2.079523E2,2.7851596E2,1.5976828E2,2.6695466E0,4.6403553E1,1.6142444E2,4.6527855E1,1.9371213E2,8.480383E1,1.0751106E2,5.2257217E1,1.3291355E0,1.3404112E0,3.982231E1,6.581241E0,8.639855E1,7.5025894E1,8.885191E0,3.7642662E1,1.6576157E2,2.7950558E1,8.347109E1,1.3327426E0,1.02639305E2,4.8717556E0,9.383482E0,4.2873737E1],"tree_param":{"num_deleted":"0","num_feature":"6","num_nodes":"31","size_leaf_vector":"1"}},{"base_weights":[-1.6210946E-1,-1.7365578E-1,1.2742811E-1,-1.9136822E-1,4.3948125E-2,5.916083E-1,3.124053E-2,-1.4102906E-1,-2.9292515E-1,4.696742E-1,-9.977309E-2,3.111617E-2,-2.269191E-3,-7.474013E-2,6.1943436E-1,1.6068058E-2,-4.6273246E-3,-4.645524E-3,-1.0294289E-2,2.6053954E-2,-2.8933089E-3,-6.0652564E-3,1.0392052E-2,9.440522E-4,-1.1461349E-2,1.2807953E-3,2.7651848E-2],"categories":[],"categories_nodes":[],"categories_segments":[],"categories_sizes":[],"default_left":[0,0,0,0,0,0,0,0,0,0,0,0,0,0,0,0,0,0,0,0,0,0,0,0,0,0,0],"id":4,"left_children":[1,3,5,7,9,11,13,15,17,19,21,-1,-1,23,25,-1,-1,-1,-1,-1,-1,-1,-1,-1,-1,-1,-1],"loss_changes":[2.2200928E0,2.4469223E0,1.1329968E0,2.9505978E0,3.010404E0,1.3780915E0,1.4438229E0,3.5986495E0,1.285244E0,2.883126E0,1.7621574E0,0E0,0E0,6.611493E-1,5.761547E-1,0E0,0E0,0E0,0E0,0E0,0E0,0E0,0E0,0E0,0E0,0E0,0E0],"parents":[2147483647,0,0,1,1,2,2,3,3,4,4,5,5,6,6,7,7,8,8,9,9,10,10,13,13,14,14],"right_children":[2,4,6,8,10,12,14,16,18,20,22,-1,-1,24,26,-1,-1,-1,-1,-1,-1,-1,-1,-1,-1,-1,-1],"split_conditions":[2.8E0,2.6E0,6.666667E-1,1.8E0,1E0,1.5E0,1.8E0,2E-1,1.2E0,2.25E0,3.2E0,3.111617E-2,-2.269191E-3,2.2E0,1.5E0,1.6068058E-2,-4.6273246E-3,-4.645524E-3,-1.0294289E-2,2.6053954E-2,-2.8933089E-3,-6.0652564E-3,1.0392052E-2,9.440522E-4,-1.1461349E-2,1.2807953E-3,2.7651848E-2],"split_indices":[2,3,4,0,2,5,1,3,5,0,4,0,0,5,5,0,0,0,0,0,0,0,0,0,0,0,0],"split_type":[0,0,0,0,0,0,0,0,0,0,0,0,0,0,0,0,0,0,0,0,0,0,0,0,0,0,0],"sum_hessian":[6.564637E2,6.316737E2,2.4789946E1,5.8423865E2,4.743509E1,3.3711152E0,2.1418829E1,3.922159E2,1.9202272E2,1.1399608E1,3.6035484E1,1.6888348E0,1.6822803E0,1.8888445E1,2.530384E0,6.7562656E0,3.8545966E2,5.2301903E1,1.3972083E2,6.3748765E0,5.0247316E0,2.9753574E1,6.281909E0,1.4704112E1,4.1843333E0,1.2626424E0,1.2677417E0],"tree_param":{"num_deleted":"0","num_feature":"6","num_nodes":"27","size_leaf_vector":"1"}},{"base_weights":[1.4546548E-1,-7.270841E-2,3.3551094E-1,4.0763684E-2,-3.73748E-1,-6.008487E-2,3.8900152E-1,4.8570167E-3,5.6444603E-1,-2.4196523E-1,-5.423424E-1,2.5078204E-1,-6.233929E-1,2.5712648E-1,5.4285157E-1,3.0361682E-3,-3.8253025E-3,-3.6554097E-3,2.5716743E-2,-8.242583E-3,1.0277216E-2,-3.6381152E-3,-1.7817134E-2,2.1171825E-2,2.3430227E-3,-4.904969E-3,-2.0053662E-2,2.442669E-2,6.5098237E-3,1.8703563E-2,9.0595E-3],"categories":[],"categories_nodes":[],"categories_segments":[],"categories_sizes":[],"default_left":[0,0,0,0,0,0,0,0,0,0,0,0,0,0,0,0,0,0,0,0,0,0,0,0,0,0,0,0,0,0,0],"id":5,"left_children":[1,3,5,7,9,11,13,15,17,19,21,23,25,27,29,-1,-1,-1,-1,-1,-1,-1,-1,-1,-1,-1,-1,-1,-1,-1,-1],"loss_changes":[3.0411476E1,1.1698124E1,8.315472E0,4.6847563E0,1.9510918E0,8.481429E0,6.866665E0,3.0010107E0,3.316759E0,1.1369216E0,8.032265E-1,2.407599E0,2.4701738E-1,4.0229816E0,2.888523E0,0E0,0E0,0E0,0E0,0E0,0E0,0E0,0E0,0E0,0E0,0E0,0E0,0E0,0E0,0E0,0E0],"parents":[2147483647,0,0,1,1,2,2,3,3,4,4,5,5,6,6,7,7,8,8,9,9,10,10,11,11,12,12,13,13,14,14],"right_children":[2,4,6,8,10,12,14,16,18,20,22,24,26,28,30,-1,-1,-1,-1,-1,-1,-1,-1,-1,-1,-1,-1,-1,-1,-1,-1],"split_conditions":[1.3333334E0,2E0,8E-1,2.8E0,2.25E0,2.2E0,2E0,2E0,6.666667E-1,2E0,1.6666666E0,8E-1,2.2E0,5E-1,1.75E0,3.0361682E-3,-3.8253025E-3,-3.6554097E-3,2.5716743E-2,-8.242583E-3,1.0277216E-2,-3.6381152E-3,-1.7817134E-2,2.1171825E-2,2.3430227E-3,-4.904969E-3,-2.0053662E-2,2.442669E-2,6.5098237E-3,1.8703563E-2,9.0595E-3],"split_indices":[0,3,5,5,3,4,0,2,4,1,4,2,3,4,3,0,0,0,0,0,0,0,0,0,0,0,0,0,0,0,0],"split_type":[0,0,0,0,0,0,0,0,0,0,0,0,0,0,0,0,0,0,0,0,0,0,0,0,0,0,0,0,0,0,0],"sum_hessian":[7.31873E2,3.41009E2,3.90864E2,2.4828609E2,9.272291E1,4.6541046E1,3.4432297E2,2.3329904E2,1.4987046E1,5.3409927E1,3.931298E1,3.0348011E1,1.6193035E1,1.868407E2,1.5748225E2,1.3515591E2,9.814312E1,4.656267E0,1.0330779E1,5.107503E1,2.3348951E0,4.654537E0,3.4658443E1,7.5004554E0,2.2847555E1,1.8581033E0,1.4334931E1,1.1259106E1,1.755816E2,1.16807236E2,4.067502E1],"tree_param":{"num_deleted":"0","num_feature":"6","num_nodes":"31","size_leaf_vector":"1"}},{"base_weights":[7.709123E-5,2.2730051E-1,-1.3410139E-1,-2.090199E-1,3.3005252E-1,-4.5618363E-2,-2.8761032E-1,5.3879E-1,-2.6278618E-1,2.4583635E-1,6.094314E-1,4.139553E-2,-2.4322347E-1,-4.175794E-1,-1.8711235E-2,1.1235315E-4,2.5179928E-2,-5.626157E-3,-1.9082868E-2,1.17697725E-2,2.210812E-3,9.400368E-4,2.2214942E-2,2.9031278E-3,-3.8620366E-3,-7.765475E-3,1.2681091E-2,-1.396184E-2,-4.8717046E-3,1.667978E-2,-4.6679783E-3],"categories":[],"categories_nodes":[],"categories_segments":[],"categories_sizes":[],"default_left":[0,0,0,0,0,0,0,0,0,0,0,0,0,0,0,0,0,0,0,0,0,0,0,0,0,0,0,0,0,0,0],"id":6,"left_children":[1,3,5,7,9,11,13,15,17,19,21,23,25,27,29,-1,-1,-1,-1,-1,-1,-1,-1,-1,-1,-1,-1,-1,-1,-1,-1],"loss_changes":[2.1255592E1,1.1673459E1,5.9406753E0,2.1498938E0,4.7885094E0,4.8115153E0,5.586896E0,5.883249E-1,1.2085817E0,4.0802336E0,3.6090717E0,1.8469999E0,9.9926186E-1,1.2407055E0,4.2725058E0,0E0,0E0,0E0,0E0,0E0,0E0,0E0,0E0,0E0,0E0,0E0,0E0,0E0,0E0,0E0,0E0],"parents":[2147483647,0,0,1,1,2,2,3,3,4,4,5,5,6,6,7,7,8,8,9,9,10,10,11,11,12,12,13,13,14,14],"right_children":[2,4,6,8,10,12,14,16,18,20,22,24,26,28,30,-1,-1,-1,-1,-1,-1,-1,-1,-1,-1,-1,-1,-1,-1,-1,-1],"split_conditions":[1.2E0,7.5E-1,2E0,1.25E0,2.2E0,1.75E0,1.6666666E0,1.2E0,3E0,1E0,1.6666666E0,2E0,2.75E0,1.6666666E0,8E-1,1.1235315E-4,2.5179928E-2,-5.626157E-3,-1.9082868E-2,1.17697725E-2,2.210812E-3,9.400368E-4,2.2214942E-2,2.9031278E-3,-3.8620366E-3,-7.765475E-3,1.2681091E-2,-1.396184E-2,-4.8717046E-3,1.667978E-2,-4.6679783E-3],"split_indices":[0,3,1,5,3,5,4,5,5,1,4,0,2,2,5,0,0,0,0,0,0,0,0,0,0,0,0,0,0,0,0],"split_type":[0,0,0,0,0,0,0,0,0,0,0,0,0,0,0,0,0,0,0,0,0,0,0,0,0,0,0,0,0,0,0],"sum_hessian":[6.951679E2,2.5783887E2,4.3732904E2,4.894926E1,2.088896E2,2.7824496E2,1.5908409E2,2.678218E0,4.627104E1,1.6195091E2,4.693868E1,1.9372859E2,8.451638E1,1.06874626E2,5.2209457E1,1.3274523E0,1.3507656E0,3.9759193E1,6.5118513E0,8.68038E1,7.514711E1,8.90415E0,3.803453E1,1.4648167E2,4.7246914E1,8.317599E1,1.3403944E0,8.931567E1,1.7558958E1,9.454499E0,4.275496E1],"tree_param":{"num_deleted":"0","num_feature":"6","num_nodes":"31","size_leaf_vector":"1"}},{"base_weights":[-1.5895715E-1,-1.7038903E-1,1.2662975E-1,-1.8789779E-1,4.4007767E-2,3.1125061E-2,1.7585043E-2,-1.3845605E-1,-2.8794202E-1,4.6139732E-1,-9.781369E-2,1.9440931E-1,-3.3696505E-1,1.5784191E-2,-4.546164E-3,-4.5475117E-3,-1.0130903E-2,2.5442658E-2,-2.8240024E-3,9.132291E-3,-6.344618E-3,1.3974593E-2,-8.678211E-3,-1.6387377E-2,-5.944069E-4],"categories":[],"categories_nodes":[],"categories_segments":[],"categories_sizes":[],"default_left":[0,0,0,0,0,0,0,0,0,0,0,0,0,0,0,0,0,0,0,0,0,0,0,0,0],"id":7,"left_children":[1,3,5,7,9,11,-1,13,15,17,19,21,23,-1,-1,-1,-1,-1,-1,-1,-1,-1,-1,-1,-1],"loss_changes":[2.1616726E0,2.375822E0,1.1142126E0,2.8452244E0,2.9118228E0,1.4129941E0,0E0,3.4905639E0,1.251359E0,2.7557814E0,1.7547889E0,2.256759E0,4.707229E-1,0E0,0E0,0E0,0E0,0E0,0E0,0E0,0E0,0E0,0E0,0E0,0E0],"parents":[2147483647,0,0,1,1,2,2,3,3,4,4,5,5,7,7,8,8,9,9,10,10,11,11,12,12],"right_children":[2,4,6,8,10,12,-1,14,16,18,20,22,24,-1,-1,-1,-1,-1,-1,-1,-1,-1,-1,-1,-1],"split_conditions":[2.8E0,2.6E0,1E0,1.8E0,1E0,2E0,1.7585043E-2,2E-1,1.2E0,2.25E0,7.5E-1,2E0,2.5E-1,1.5784191E-2,-4.546164E-3,-4.5475117E-3,-1.0130903E-2,2.5442658E-2,-2.8240024E-3,9.132291E-3,-6.344618E-3,1.3974593E-2,-8.678211E-3,-1.6387377E-2,-5.944069E-4],"split_indices":[2,3,0,0,2,5,0,3,5,0,0,3,0,0,0,0,0,0,0,0,0,0,0,0,0],"split_type":[0,0,0,0,0,0,0,0,0,0,0,0,0,0,0,0,0,0,0,0,0,0,0,0,0],"sum_hessian":[6.545074E2,6.297041E2,2.4803305E1,5.8227594E2,4.7428104E1,2.141948E1,3.383825E0,3.9128653E2,1.9098946E2,1.1456761E1,3.5971344E1,1.5164412E1,6.255068E0,6.7968097E0,3.8448972E2,5.2140213E1,1.3884924E2,6.4443674E0,5.012394E0,7.5562663E0,2.8415077E1,9.737379E0,5.427032E0,3.33321E0,2.9218578E0],"tree_param":{"num_deleted":"0","num_feature":"6","num_nodes":"25","size_leaf_vector":"1"}},{"base_weights":[1.4188173E-1,-7.126289E-2,3.266935E-1,3.9848275E-2,-3.6746344E-1,-5.903381E-2,3.7858194E-1,4.6219653E-3,5.5109686E-1,-2.3783673E-1,-5.3397626E-1,2.4509375E-1,-6.153527E-1,2.5035533E-1,5.2776265E-1,2.9815391E-3,-3.774252E-3,-3.6557734E-3,2.5090776E-2,-8.110069E-3,1.01557635E-2,-3.6117826E-3,-1.7548133E-2,2.0716555E-2,2.261466E-3,-4.8099603E-3,-1.9806141E-2,2.3868497E-2,6.3283984E-3,1.8168451E-2,8.830085E-3],"categories":[],"categories_nodes":[],"categories_segments":[],"categories_sizes":[],"default_left":[0,0,0,0,0,0,0,0,0,0,0,0,0,0,0,0,0,0,0,0,0,0,0,0,0,0,0,0,0,0,0],"id":8,"left_children":[1,3,5,7,9,11,13,15,17,19,21,23,25,27,29,-1,-1,-1,-1,-1,-1,-1,-1,-1,-1,-1,-1,-1,-1,-1,-1],"loss_changes":[2.8937489E1,1.1260425E1,7.8945312E0,4.4888163E0,1.8870707E0,8.187631E0,6.502117E0,2.9087133E0,3.1863728E0,1.1080525E0,7.735157E-1,2.3237977E0,2.4260902E-1,3.8807201E0,2.718628E0,0E0,0E0,0E0,0E0,0E0,0E0,0E0,0E0,0E0,0E0,0E0,0E0,0E0,0E0,0E0,0E0],"parents":[2147483647,0,0,1,1,2,2,3,3,4,4,5,5,6,6,7,7,8,8,9,9,10,10,11,11,12,12,13,13,14,14],"right_children":[2,4,6,8,10,12,14,16,18,20,22,24,26,28,30,-1,-1,-1,-1,-1,-1,-1,-1,-1,-1,-1,-1,-1,-1,-1,-1],"split_conditions":[1.3333334E0,2E0,8E-1,2.8E0,2.25E0,2.2E0,2E0,2E0,6.666667E-1,2E0,1.6666666E0,8E-1,2.2E0,5E-1,1.75E0,2.9815391E-3,-3.774252E-3,-3.6557734E-3,2.5090776E-2,-8.110069E-3,1.01557635E-2,-3.6117826E-3,-1.7548133E-2,2.0716555E-2,2.261466E-3,-4.8099603E-3,-1.9806141E-2,2.3868497E-2,6.3283984E-3,1.8168451E-2,8.830085E-3],"split_indices":[0,3,5,5,3,4,0,2,4,1,4,2,3,4,3,0,0,0,0,0,0,0,0,0,0,0,0,0,0,0,0],"split_type":[0,0,0,0,0,0,0,0,0,0,0,0,0,0,0,0,0,0,0,0,0,0,0,0,0,0,0,0,0,0,0],"sum_hessian":[7.3301904E2,3.4070087E2,3.9231818E2,2.4838995E2,9.231091E1,4.6501152E1,3.4581705E2,2.333225E2,1.5067464E1,5.326983E1,3.904109E1,3.0426872E1,1.6074278E1,1.8740952E2,1.5840752E2,1.3527675E2,9.804573E1,4.6561236E0,1.041134E1,5.0929085E1,2.3407407E0,4.6517463E0,3.4389343E1,7.5474315E0,2.287944E1,1.8527659E0,1.4221513E1,1.13386345E1,1.7607088E2,1.1759332E2,4.0814194E1],"tree_param":{"num_deleted":"0","num_feature":"6","num_nodes":"31","size_leaf_vector":"1"}},{"base_weights":[1.9336886E-4,2.2187965E-1,-1.3138336E-1,-2.0605636E-1,3.2198355E-1,-4.4331875E-2,-2.8291193E-1,5.332502E-1,-2.5952476E-1,2.403368E-1,5.915027E-1,4.116235E-2,-2.3917682E-1,-4.117578E-1,-1.7679747E-2,1.22022364E-4,2.48693E-2,-5.564189E-3,-1.888569E-2,1.1513856E-2,2.1387353E-3,8.4816193E-4,2.155089E-2,2.2105914E-5,8.146956E-3,-7.6424205E-3,1.2607744E-2,-1.3054513E-2,2.0609947E-3,1.6254738E-2,-4.565711E-3],"categories":[],"categories_nodes":[],"categories_segments":[],"categories_sizes":[],"default_left":[0,0,0,0,0,0,0,0,0,0,0,0,0,0,0,0,0,0,0,0,0,0,0,0,0,0,0,0,0,0,0],"id":9,"left_children":[1,3,5,7,9,11,13,15,17,19,21,23,25,27,29,-1,-1,-1,-1,-1,-1,-1,-1,-1,-1,-1,-1,-1,-1,-1,-1],"loss_changes":[2.0329762E1,1.1186856E1,5.7568054E0,2.1078598E0,4.495941E0,4.657055E0,5.440113E0,5.7371867E-1,1.1746957E0,3.9364939E0,3.4322586E0,1.8137343E0,9.821315E-1,1.235178E0,4.083393E0,0E0,0E0,0E0,0E0,0E0,0E0,0E0,0E0,0E0,0E0,0E0,0E0,0E0,0E0,0E0,0E0],"parents":[2147483647,0,0,1,1,2,2,3,3,4,4,5,5,6,6,7,7,8,8,9,9,10,10,11,11,12,12,13,13,14,14],"right_children":[2,4,6,8,10,12,14,16,18,20,22,24,26,28,30,-1,-1,-1,-1,-1,-1,-1,-1,-1,-1,-1,-1,-1,-1,-1,-1],"split_conditions":[1.2E0,7.5E-1,2E0,1.25E0,2.2E0,1.75E0,1.6666666E0,1.2E0,3E0,1E0,1.6666666E0,2.4E0,2.75E0,3E0,8E-1,1.22022364E-4,2.48693E-2,-5.564189E-3,-1.888569E-2,1.1513856E-2,2.1387353E-3,8.4816193E-4,2.155089E-2,2.2105914E-5,8.146956E-3,-7.6424205E-3,1.2607744E-2,-1.3054513E-2,2.0609947E-3,1.6254738E-2,-4.565711E-3],"split_indices":[0,3,1,5,3,5,4,5,5,1,4,4,2,5,5,0,0,0,0,0,0,0,0,0,0,0,0,0,0,0,0],"split_type":[0,0,0,0,0,0,0,0,0,0,0,0,0,0,0,0,0,0,0,0,0,0,0,0,0,0,0,0,0,0,0],"sum_hessian":[6.949712E2,2.585941E2,4.3637708E2,4.882269E1,2.0977141E2,2.7797568E2,1.5840138E2,2.687635E0,4.6135056E1,1.6245105E2,4.7320362E1,1.9375044E2,8.4225235E1,1.0623941E2,5.216198E1,1.3269322E0,1.3607028E0,3.9692287E1,6.4427686E0,8.718892E1,7.526213E1,8.923765E0,3.83966E1,1.6568352E2,2.8066916E1,8.288192E1,1.3433136E0,1.0139687E2,4.8425355E0,9.522886E0,4.2639095E1],"tree_param":{"num_deleted":"0","num_feature":"6","num_nodes":"31","size_leaf_vector":"1"}},{"base_weights":[-1.558754E-1,2.6208484E-1,-1.6341574E-1,7.939861E-1,-4.429532E-2,-1.6826838E-1,5.783386E-1,3.045949E-2,8.3907815E-3,-4.0796292E-1,4.8585755E-1,-1.8385075E-1,1.8639237E-2,-2.5027497E-3,3.0762527E-2,-1.6378498E-2,9.963688E-4,1.3905612E-3,2.024692E-2,-4.143466E-3,-8.434793E-3,1.3567623E-2,-3.6765218E-3],"categories":[],"categories_nodes":[],"categories_segments":[],"categories_sizes":[],"default_left":[0,0,0,0,0,0,0,0,0,0,0,0,0,0,0,0,0,0,0,0,0,0,0],"id":10,"left_children":[1,3,5,7,9,11,13,-1,-1,15,17,19,21,-1,-1,-1,-1,-1,-1,-1,-1,-1,-1],"loss_changes":[2.102603E0,1.9852097E0,2.4103546E0,2.1986032E-1,1.844681E0,1.8650799E0,1.387938E0,0E0,0E0,3.595761E-1,2.9532063E-1,2.5874062E0,3.122468E0,0E0,0E0,0E0,0E0,0E0,0E0,0E0,0E0,0E0,0E0],"parents":[2147483647,0,0,1,1,2,2,3,3,4,4,5,5,6,6,9,9,10,10,11,11,12,12],"right_children":[2,4,6,8,10,12,14,-1,-1,16,18,20,22,-1,-1,-1,-1,-1,-1,-1,-1,-1,-1],"split_conditions":[2E-1,1E0,3.6E0,2.3333333E0,7.5E-1,2.6E0,6.666667E-1,3.045949E-2,8.3907815E-3,1.75E0,1.4E0,1.8E0,1E0,-2.5027497E-3,3.0762527E-2,-1.6378498E-2,9.963688E-4,1.3905612E-3,2.024692E-2,-4.143466E-3,-8.434793E-3,1.3567623E-2,-3.6765218E-3],"split_indices":[3,1,2,2,4,3,1,0,0,2,1,0,2,0,0,0,0,0,0,0,0,0,0],"split_type":[0,0,0,0,0,0,0,0,0,0,0,0,0,0,0,0,0,0,0,0,0,0,0],"sum_hessian":[6.525714E2,1.0966078E1,6.4160535E2,3.426275E0,7.5398026E0,6.3820325E2,3.402048E0,1.7143111E0,1.711964E0,4.608798E0,2.9310045E0,5.8910626E2,4.9097034E1,1.6996446E0,1.7024037E0,3.3298316E0,1.2789662E0,1.2560244E0,1.6749803E0,4.0239838E2,1.8670787E2,1.1518596E1,3.7578438E1],"tree_param":{"num_deleted":"0","num_feature":"6","num_nodes":"23","size_leaf_vector":"1"}},{"base_weights":[1.3841562E-1,-6.969234E-2,3.1804314E-1,3.9164096E-2,-3.6127728E-1,-5.8283594E-2,3.6842087E-1,4.599411E-3,5.3855497E-1,-2.3374724E-1,-5.258016E-1,2.397781E-1,-6.082827E-1,2.4409568E-1,5.1264215E-1,2.9321467E-3,-3.7153626E-3,-3.6524632E-3,2.4504786E-2,-7.978215E-3,1.002475E-2,-3.5930704E-3,-1.728482E-2,2.0277398E-2,2.1903934E-3,-4.7307075E-3,-1.9588351E-2,2.335363E-2,6.16094E-3,1.7640337E-2,8.581972E-3],"categories":[],"categories_nodes":[],"categories_segments":[],"categories_sizes":[],"default_left":[0,0,0,0,0,0,0,0,0,0,0,0,0,0,0,0,0,0,0,0,0,0,0,0,0,0,0,0,0,0,0],"id":11,"left_children":[1,3,5,7,9,11,13,15,17,19,21,23,25,27,29,-1,-1,-1,-1,-1,-1,-1,-1,-1,-1,-1,-1,-1,-1,-1,-1],"loss_changes":[2.7499401E1,1.0848749E1,7.504303E0,4.303448E0,1.8260822E0,7.9264884E0,6.1188087E0,2.8152754E0,3.0649705E0,1.0784769E0,7.4401E-1,2.2415795E0,2.3842621E-1,3.7501879E0,2.569355E0,0E0,0E0,0E0,0E0,0E0,0E0,0E0,0E0,0E0,0E0,0E0,0E0,0E0,0E0,0E0,0E0],"parents":[2147483647,0,0,1,1,2,2,3,3,4,4,5,5,6,6,7,7,8,8,9,9,10,10,11,11,12,12,13,13,14,14],"right_children":[2,4,6,8,10,12,14,16,18,20,22,24,26,28,30,-1,-1,-1,-1,-1,-1,-1,-1,-1,-1,-1,-1,-1,-1,-1,-1],"split_conditions":[1.3333334E0,2E0,8E-1,2.8E0,2.25E0,2.2E0,2E0,2E0,6.666667E-1,2E0,1.6666666E0,8E-1,2.2E0,5E-1,1.75E0,2.9321467E-3,-3.7153626E-3,-3.6524632E-3,2.4504786E-2,-7.978215E-3,1.002475E-2,-3.5930704E-3,-1.728482E-2,2.0277398E-2,2.1903934E-3,-4.7307075E-3,-1.9588351E-2,2.335363E-2,6.16094E-3,1.7640337E-2,8.581972E-3],"split_indices":[0,3,5,5,3,4,0,2,4,1,4,2,3,4,3,0,0,0,0,0,0,0,0,0,0,0,0,0,0,0,0],"split_type":[0,0,0,0,0,0,0,0,0,0,0,0,0,0,0,0,0,0,0,0,0,0,0,0,0,0,0,0,0,0,0],"sum_hessian":[7.3404083E2,3.403451E2,3.9369574E2,2.4845566E2,9.188944E1,4.6462097E1,3.4723364E2,2.333162E2,1.5139464E1,5.312819E1,3.8761253E1,3.0498205E1,1.5963891E1,1.8792575E2,1.5930789E2,1.3538438E2,9.79318E1,4.6553555E0,1.0484109E1,5.078124E1,2.3469532E0,4.649756E0,3.4111496E1,7.591447E0,2.290676E1,1.8482147E0,1.4115676E1,1.1409788E1,1.7651596E2,1.1834574E2,4.0962147E1],"tree_param":{"num_deleted":"0","num_feature":"6","num_nodes":"31","size_leaf_vector":"1"}},{"base_weights":[3.0038564E-4,2.1651985E-1,-1.28676E-1,-2.0310536E-1,3.140314E-1,-4.3046944E-2,-2.7823588E-1,5.273406E-1,-2.562504E-1,2.3487817E-1,5.741371E-1,4.0945347E-2,-2.3515333E-1,-4.0599367E-1,-1.6564356E-2,1.5535591E-4,2.450526E-2,-5.5009266E-3,-1.8693296E-2,1.1263316E-2,2.0645002E-3,7.7485817E-4,2.0904481E-2,4.1097785E-5,7.969481E-3,-7.518062E-3,1.2427745E-2,-1.2878819E-2,2.0882522E-3,1.58689E-2,-4.4652456E-3],"categories":[],"categories_nodes":[],"categories_segments":[],"categories_sizes":[],"default_left":[0,0,0,0,0,0,0,0,0,0,0,0,0,0,0,0,0,0,0,0,0,0,0,0,0,0,0,0,0,0,0],"id":12,"left_children":[1,3,5,7,9,11,13,15,17,19,21,23,25,27,29,-1,-1,-1,-1,-1,-1,-1,-1,-1,-1,-1,-1,-1,-1,-1,-1],"loss_changes":[1.9429747E1,1.0715593E1,5.5769587E0,2.064198E0,4.222143E0,4.506595E0,5.2989473E0,5.5468285E-1,1.142364E0,3.8010187E0,3.2566795E0,1.7316669E0,9.5590496E-1,1.2111721E0,3.9110992E0,0E0,0E0,0E0,0E0,0E0,0E0,0E0,0E0,0E0,0E0,0E0,0E0,0E0,0E0,0E0,0E0],"parents":[2147483647,0,0,1,1,2,2,3,3,4,4,5,5,6,6,7,7,8,8,9,9,10,10,11,11,12,12,13,13,14,14],"right_children":[2,4,6,8,10,12,14,16,18,20,22,24,26,28,30,-1,-1,-1,-1,-1,-1,-1,-1,-1,-1,-1,-1,-1,-1,-1,-1],"split_conditions":[1.2E0,7.5E-1,2E0,1.25E0,2.2E0,1.75E0,1.6666666E0,1.2E0,3E0,1E0,1.6666666E0,2.4E0,2.75E0,3E0,8E-1,1.5535591E-4,2.450526E-2,-5.5009266E-3,-1.8693296E-2,1.1263316E-2,2.0645002E-3,7.7485817E-4,2.0904481E-2,4.1097785E-5,7.969481E-3,-7.518062E-3,1.2427745E-2,-1.2878819E-2,2.0882522E-3,1.58689E-2,-4.4652456E-3],"split_indices":[0,3,1,5,3,5,4,5,5,1,4,4,2,5,5,0,0,0,0,0,0,0,0,0,0,0,0,0,0,0,0],"split_type":[0,0,0,0,0,0,0,0,0,0,0,0,0,0,0,0,0,0,0,0,0,0,0,0,0,0,0,0,0,0,0],"sum_hessian":[6.947271E2,2.5931903E2,4.354081E2,4.8693127E1,2.106259E2,2.7770096E2,1.5770715E2,2.6973298E0,4.5995796E1,1.6294334E2,4.768256E1,1.9376872E2,8.393223E1,1.05598495E2,5.2108658E1,1.3251313E0,1.3721985E0,3.9623398E1,6.372399E0,8.756312E1,7.5380226E1,8.939296E0,3.8743263E1,1.656076E2,2.8161116E1,8.258181E1,1.3504171E0,1.0075954E2,4.8389597E0,9.584025E0,4.252463E1],"tree_param":{"num_deleted":"0","num_feature":"6","num_nodes":"31","size_leaf_vector":"1"}},{"base_weights":[-1.5281245E-1,-1.6404939E-1,1.2601666E-1,-1.8114401E-1,4.3914225E-2,3.1200355E-2,1.7421303E-2,-1.333593E-1,-2.7838957E-1,4.4402114E-1,-9.385892E-2,1.920302E-1,-3.3344862E-1,1.5366815E-2,-4.3869815E-3,-4.3104445E-3,-9.833235E-3,2.4475E-2,-2.882719E-3,-5.8765262E-3,1.0428698E-2,1.3691616E-2,-8.531411E-3,-1.629578E-2,-5.09764E-4],"categories":[],"categories_nodes":[],"categories_segments":[],"categories_sizes":[],"default_left":[0,0,0,0,0,0,0,0,0,0,0,0,0,0,0,0,0,0,0,0,0,0,0,0,0],"id":13,"left_children":[1,3,5,7,9,11,-1,13,15,17,19,21,23,-1,-1,-1,-1,-1,-1,-1,-1,-1,-1,-1,-1],"loss_changes":[2.0623856E0,2.2363777E0,1.0945964E0,2.6553268E0,2.7105994E0,1.3784777E0,0E0,3.3197188E0,1.2168007E0,2.6039107E0,1.7274872E0,2.1685185E0,4.7034526E-1,0E0,0E0,0E0,0E0,0E0,0E0,0E0,0E0,0E0,0E0,0E0,0E0],"parents":[2147483647,0,0,1,1,2,2,3,3,4,4,5,5,7,7,8,8,9,9,10,10,11,11,12,12],"right_children":[2,4,6,8,10,12,-1,14,16,18,20,22,24,-1,-1,-1,-1,-1,-1,-1,-1,-1,-1,-1,-1],"split_conditions":[2.8E0,2.6E0,1E0,1.8E0,1E0,2E0,1.7421303E-2,2E-1,1.2E0,2.25E0,3.2E0,2E0,2.5E-1,1.5366815E-2,-4.3869815E-3,-4.3104445E-3,-9.833235E-3,2.4475E-2,-2.882719E-3,-5.8765262E-3,1.0428698E-2,1.3691616E-2,-8.531411E-3,-1.629578E-2,-5.09764E-4],"split_indices":[2,3,0,0,2,5,0,3,5,0,4,3,0,0,0,0,0,0,0,0,0,0,0,0,0],"split_type":[0,0,0,0,0,0,0,0,0,0,0,0,0,0,0,0,0,0,0,0,0,0,0,0,0],"sum_hessian":[6.50641E2,6.2583136E2,2.4809649E1,5.784146E2,4.7416748E1,2.1413048E1,3.396601E0,3.8942804E2,1.8898656E2,1.1576013E1,3.5840736E1,1.5187796E1,6.225253E0,6.8552737E0,3.8257275E2,5.174645E1,1.3724011E2,6.5538564E0,5.022156E0,2.9564714E1,6.27602E0,9.794772E0,5.393023E0,3.3129678E0,2.912285E0],"tree_param":{"num_deleted":"0","num_feature":"6","num_nodes":"25","size_leaf_vector":"1"}},{"base_weights":[1.3501918E-1,-6.831365E-2,3.0978978E-1,3.8303163E-2,-3.5529372E-1,-5.7483092E-2,3.5872176E-1,4.398035E-3,5.26142E-1,-2.2976232E-1,-5.179499E-1,2.3433864E-1,-6.0098815E-1,2.3765777E-1,4.9886033E-1,2.8825544E-3,-3.667846E-3,-3.657309E-3,2.3936015E-2,-7.849907E-3,9.902542E-3,-3.550274E-3,-1.7035147E-2,1.9867018E-2,2.1079697E-3,-4.654555E-3,-1.936333E-2,2.2829065E-2,5.988755E-3,1.7159542E-2,8.35608E-3],"categories":[],"categories_nodes":[],"categories_segments":[],"categories_sizes":[],"default_left":[0,0,0,0,0,0,0,0,0,0,0,0,0,0,0,0,0,0,0,0,0,0,0,0,0,0,0,0,0,0,0],"id":14,"left_children":[1,3,5,7,9,11,13,15,17,19,21,23,25,27,29,-1,-1,-1,-1,-1,-1,-1,-1,-1,-1,-1,-1,-1,-1,-1,-1],"loss_changes":[2.6174978E1,1.0447329E1,7.1366234E0,4.1250944E0,1.7690554E0,7.6610174E0,5.8117905E0,2.733032E0,2.9512935E0,1.0505762E0,7.1988297E-1,2.1698315E0,2.3372269E-1,3.618638E0,2.436203E0,0E0,0E0,0E0,0E0,0E0,0E0,0E0,0E0,0E0,0E0,0E0,0E0,0E0,0E0,0E0,0E0],"parents":[2147483647,0,0,1,1,2,2,3,3,4,4,5,5,6,6,7,7,8,8,9,9,10,10,11,11,12,12,13,13,14,14],"right_children":[2,4,6,8,10,12,14,16,18,20,22,24,26,28,30,-1,-1,-1,-1,-1,-1,-1,-1,-1,-1,-1,-1,-1,-1,-1,-1],"split_conditions":[1.3333334E0,2E0,8E-1,2.8E0,2.25E0,2.2E0,2E0,2E0,6.666667E-1,2E0,1.6666666E0,8E-1,2.2E0,5E-1,1.75E0,2.8825544E-3,-3.667846E-3,-3.657309E-3,2.3936015E-2,-7.849907E-3,9.902542E-3,-3.550274E-3,-1.7035147E-2,1.9867018E-2,2.1079697E-3,-4.654555E-3,-1.936333E-2,2.2829065E-2,5.988755E-3,1.7159542E-2,8.35608E-3],"split_indices":[0,3,5,5,3,4,0,2,4,1,4,2,3,4,3,0,0,0,0,0,0,0,0,0,0,0,0,0,0,0,0],"split_type":[0,0,0,0,0,0,0,0,0,0,0,0,0,0,0,0,0,0,0,0,0,0,0,0,0,0,0,0,0,0,0],"sum_hessian":[7.349685E2,3.4000577E2,3.9496274E2,2.4853743E2,9.146834E1,4.6414066E1,3.4854868E2,2.3332986E2,1.5207569E1,5.298739E1,3.8480953E1,3.0569408E1,1.5844658E1,1.8844727E2,1.6010143E2,1.3549112E2,9.783875E1,4.6555767E0,1.0551992E1,5.0634735E1,2.3526561E0,4.645164E0,3.383579E1,7.631242E0,2.2938166E1,1.8438017E0,1.4000856E1,1.1479962E1,1.769673E2,1.1900739E2,4.1094025E1],"tree_param":{"num_deleted":"0","num_feature":"6","num_nodes":"31","size_leaf_vector":"1"}},{"base_weights":[4.213401E-4,2.1134324E-1,-1.2600586E-1,-2.0023863E-1,3.0637723E-1,-4.176017E-2,-2.7365217E-1,5.220425E-1,-2.530879E-1,2.296743E-1,5.573555E-1,4.0789574E-2,-2.3122478E-1,-4.003309E-1,-1.5491167E-2,1.6526974E-4,2.4211597E-2,-5.4399287E-3,-1.8509638E-2,1.1022325E-2,1.9964166E-3,6.8801246E-4,2.0287855E-2,2.8125134E-3,-3.6890446E-3,-7.3985895E-3,1.2358514E-2,-1.3438261E-2,-4.459845E-3,1.5481347E-2,-4.3642353E-3],"categories":[],"categories_nodes":[],"categories_segments":[],"categories_sizes":[],"default_left":[0,0,0,0,0,0,0,0,0,0,0,0,0,0,0,0,0,0,0,0,0,0,0,0,0,0,0,0,0,0,0],"id":15,"left_children":[1,3,5,7,9,11,13,15,17,19,21,23,25,27,29,-1,-1,-1,-1,-1,-1,-1,-1,-1,-1,-1,-1,-1,-1,-1,-1],"loss_changes":[1.8571062E1,1.0270026E1,5.4047017E0,2.0240812E0,3.9614754E0,4.3639903E0,5.161296E0,5.4111874E-1,1.1116974E0,3.669549E0,3.0998278E0,1.7007748E0,9.397025E-1,1.2030201E0,3.740547E0,0E0,0E0,0E0,0E0,0E0,0E0,0E0,0E0,0E0,0E0,0E0,0E0,0E0,0E0,0E0,0E0],"parents":[2147483647,0,0,1,1,2,2,3,3,4,4,5,5,6,6,7,7,8,8,9,9,10,10,11,11,12,12,13,13,14,14],"right_children":[2,4,6,8,10,12,14,16,18,20,22,24,26,28,30,-1,-1,-1,-1,-1,-1,-1,-1,-1,-1,-1,-1,-1,-1,-1,-1],"split_conditions":[1.2E0,7.5E-1,2E0,1.25E0,2.2E0,1.75E0,1.6666666E0,1.2E0,3E0,1E0,1.6666666E0,2E0,2.75E0,1.6666666E0,8E-1,1.6526974E-4,2.4211597E-2,-5.4399287E-3,-1.8509638E-2,1.1022325E-2,1.9964166E-3,6.8801246E-4,2.0287855E-2,2.8125134E-3,-3.6890446E-3,-7.3985895E-3,1.2358514E-2,-1.3438261E-2,-4.459845E-3,1.5481347E-2,-4.3642353E-3],"split_indices":[0,3,1,5,3,5,4,5,5,1,4,0,2,2,5,0,0,0,0,0,0,0,0,0,0,0,0,0,0,0,0],"split_type":[0,0,0,0,0,0,0,0,0,0,0,0,0,0,0,0,0,0,0,0,0,0,0,0,0,0,0,0,0,0,0],"sum_hessian":[6.944267E2,2.5999625E2,4.3443045E2,4.8563976E1,2.1143228E2,2.7741992E2,1.5701051E2,2.7058399E0,4.5858135E1,1.6340749E2,4.8024803E1,1.9377629E2,8.364363E1,1.0495752E2,5.2052998E1,1.3245847E0,1.3812551E0,3.955637E1,6.301769E0,8.791991E1,7.548757E1,8.957664E0,3.906714E1,1.4674501E2,4.703128E1,8.229051E1,1.3531258E0,8.76045E1,1.735302E1,9.644404E0,4.2408592E1],"tree_param":{"num_deleted":"0","num_feature":"6","num_nodes":"31","size_leaf_vector":"1"}},{"base_weights":[-1.4982687E-1,2.582965E-1,-1.5725294E-1,7.6933247E-1,-4.086481E-2,-1.6204385E-1,5.647369E-1,2.9640717E-2,8.03594E-3,-4.0314665E-1,4.8209244E-1,-1.7725466E-1,1.9368833E-2,-2.5737418E-3,3.0077687E-2,-1.6194789E-2,8.978069E-4,1.4053336E-3,2.0044293E-2,-3.996115E-3,-8.14629E-3,1.30985435E-2,-3.5464868E-3],"categories":[],"categories_nodes":[],"categories_segments":[],"categories_sizes":[],"default_left":[0,0,0,0,0,0,0,0,0,0,0,0,0,0,0,0,0,0,0,0,0,0,0],"id":16,"left_children":[1,3,5,7,9,11,13,-1,-1,15,17,19,21,-1,-1,-1,-1,-1,-1,-1,-1,-1,-1],"loss_changes":[2.0097828E0,1.8644011E0,2.3009052E0,2.2637129E-1,1.8070049E0,1.7565155E0,1.3488346E0,0E0,0E0,3.4603608E-1,2.876653E-1,2.3988323E0,2.9247758E0,0E0,0E0,0E0,0E0,0E0,0E0,0E0,0E0,0E0,0E0],"parents":[2147483647,0,0,1,1,2,2,3,3,4,4,5,5,6,6,9,9,10,10,11,11,12,12],"right_children":[2,4,6,8,10,12,14,-1,-1,16,18,20,22,-1,-1,-1,-1,-1,-1,-1,-1,-1,-1],"split_conditions":[2E-1,1E0,3.6E0,2.3333333E0,7.5E-1,2.6E0,6.666667E-1,2.9640717E-2,8.03594E-3,1.75E0,1.4E0,1.8E0,1E0,-2.5737418E-3,3.0077687E-2,-1.6194789E-2,8.978069E-4,1.4053336E-3,2.0044293E-2,-3.996115E-3,-8.14629E-3,1.30985435E-2,-3.5464868E-3],"split_indices":[3,1,2,2,4,3,1,0,0,2,1,0,2,0,0,0,0,0,0,0,0,0,0],"split_type":[0,0,0,0,0,0,0,0,0,0,0,0,0,0,0,0,0,0,0,0,0,0,0],"sum_hessian":[6.487279E2,1.0989378E1,6.377385E2,3.477456E0,7.5119224E0,6.34305E2,3.433509E0,1.7458305E0,1.7316254E0,4.57303E0,2.9388924E0,5.852563E2,4.904873E1,1.7047639E0,1.7287453E0,3.2886267E0,1.2844031E0,1.2549164E0,1.6839758E0,4.005398E2,1.8471649E2,1.1623901E1,3.7424828E1],"tree_param":{"num_deleted":"0","num_feature":"6","num_nodes":"23","size_leaf_vector":"1"}},{"base_weights":[1.3172632E-1,-6.6936366E-2,3.0179718E-1,3.7542257E-2,-3.495146E-1,-5.652906E-2,3.4930897E-1,4.2722253E-3,5.1448095E-1,-2.259112E-1,-5.103958E-1,2.2910285E-1,-5.936373E-1,2.3145616E-1,4.8546126E-1,2.8313457E-3,-3.6131826E-3,-3.6525119E-3,2.339873E-2,-1.365773E-2,-4.069458E-3,-3.5352712E-3,-1.6792115E-2,1.9460332E-2,2.0330593E-3,-4.5631076E-3,-1.913901E-2,2.2338433E-2,5.82236E-3,1.6688442E-2,8.147375E-3],"categories":[],"categories_nodes":[],"categories_segments":[],"categories_sizes":[],"default_left":[0,0,0,0,0,0,0,0,0,0,0,0,0,0,0,0,0,0,0,0,0,0,0,0,0,0,0,0,0,0,0],"id":17,"left_children":[1,3,5,7,9,11,13,15,17,19,21,23,25,27,29,-1,-1,-1,-1,-1,-1,-1,-1,-1,-1,-1,-1,-1,-1,-1,-1],"loss_changes":[2.4913683E1,1.0070102E1,6.7809105E0,3.9583495E0,1.7151041E0,7.4008303E0,5.5162964E0,2.6445892E0,2.84262E0,1.0529878E0,6.9328403E-1,2.0975084E0,2.3019409E-1,3.4986296E0,2.300415E0,0E0,0E0,0E0,0E0,0E0,0E0,0E0,0E0,0E0,0E0,0E0,0E0,0E0,0E0,0E0,0E0],"parents":[2147483647,0,0,1,1,2,2,3,3,4,4,5,5,6,6,7,7,8,8,9,9,10,10,11,11,12,12,13,13,14,14],"right_children":[2,4,6,8,10,12,14,16,18,20,22,24,26,28,30,-1,-1,-1,-1,-1,-1,-1,-1,-1,-1,-1,-1,-1,-1,-1,-1],"split_conditions":[1.3333334E0,2E0,8E-1,2.8E0,2.25E0,2.2E0,2E0,2E0,6.666667E-1,1.5E0,1.6666666E0,8E-1,2.2E0,5E-1,1.75E0,2.8313457E-3,-3.6131826E-3,-3.6525119E-3,2.339873E-2,-1.365773E-2,-4.069458E-3,-3.5352712E-3,-1.6792115E-2,1.9460332E-2,2.0330593E-3,-4.5631076E-3,-1.913901E-2,2.2338433E-2,5.82236E-3,1.6688442E-2,8.147375E-3],"split_indices":[0,3,5,5,3,4,0,2,4,2,4,2,3,4,3,0,0,0,0,0,0,0,0,0,0,0,0,0,0,0,0],"split_type":[0,0,0,0,0,0,0,0,0,0,0,0,0,0,0,0,0,0,0,0,0,0,0,0,0,0,0,0,0,0,0],"sum_hessian":[7.357827E2,3.3964453E2,3.9613818E2,2.4859703E2,9.104749E1,4.6354004E1,3.4978418E2,2.3332951E2,1.5267518E1,5.2848633E1,3.8198856E1,3.063558E1,1.5718422E1,1.8893924E2,1.6084496E2,1.3559988E2,9.7729645E1,4.654386E0,1.06131315E1,1.3783276E1,3.9065357E1,4.643561E0,3.3555298E1,7.6693997E0,2.296618E1,1.8384323E0,1.387999E1,1.1543008E1,1.7739622E2,1.1963185E2,4.1213108E1],"tree_param":{"num_deleted":"0","num_feature":"6","num_nodes":"31","size_leaf_vector":"1"}},{"base_weights":[5.1769195E-4,2.0634831E-1,-1.2343186E-1,-1.9738264E-1,2.989899E-1,-4.056226E-2,-2.6916856E-1,5.1640093E-1,-2.4990998E-1,2.2457485E-1,5.415833E-1,4.0520318E-2,-2.273232E-1,-3.947695E-1,-1.4494557E-2,1.9874747E-4,2.386684E-2,-5.377685E-3,-1.8329833E-2,1.0788468E-2,1.9280487E-3,6.213307E-4,1.9705117E-2,5.80391E-5,7.7604246E-3,-4.791511E-3,-1.1981401E-2,-1.254331E-2,2.3081037E-3,1.5117142E-2,-4.268147E-3],"categories":[],"categories_nodes":[],"categories_segments":[],"categories_sizes":[],"default_left":[0,0,0,0,0,0,0,0,0,0,0,0,0,0,0,0,0,0,0,0,0,0,0,0,0,0,0,0,0,0,0],"id":18,"left_children":[1,3,5,7,9,11,13,15,17,19,21,23,25,27,29,-1,-1,-1,-1,-1,-1,-1,-1,-1,-1,-1,-1,-1,-1,-1,-1],"loss_changes":[1.7759094E1,9.84451E0,5.236167E0,1.9824121E0,3.7271214E0,4.221233E0,5.026373E0,5.2333266E-1,1.082331E0,3.5457373E0,2.9482622E0,1.6392606E0,9.1742086E-1,1.191721E0,3.5822408E0,0E0,0E0,0E0,0E0,0E0,0E0,0E0,0E0,0E0,0E0,0E0,0E0,0E0,0E0,0E0,0E0],"parents":[2147483647,0,0,1,1,2,2,3,3,4,4,5,5,6,6,7,7,8,8,9,9,10,10,11,11,12,12,13,13,14,14],"right_children":[2,4,6,8,10,12,14,16,18,20,22,24,26,28,30,-1,-1,-1,-1,-1,-1,-1,-1,-1,-1,-1,-1,-1,-1,-1,-1],"split_conditions":[1.2E0,7.5E-1,2E0,1.25E0,2.2E0,1.75E0,1.6666666E0,1.2E0,3E0,1E0,1.6666666E0,2.4E0,2.3333333E0,3E0,8E-1,1.9874747E-4,2.386684E-2,-5.377685E-3,-1.8329833E-2,1.0788468E-2,1.9280487E-3,6.213307E-4,1.9705117E-2,5.80391E-5,7.7604246E-3,-4.791511E-3,-1.1981401E-2,-1.254331E-2,2.3081037E-3,1.5117142E-2,-4.268147E-3],"split_indices":[0,3,1,5,3,5,4,5,5,1,4,4,5,5,5,0,0,0,0,0,0,0,0,0,0,0,0,0,0,0,0],"split_type":[0,0,0,0,0,0,0,0,0,0,0,0,0,0,0,0,0,0,0,0,0,0,0,0,0,0,0,0,0,0,0],"sum_hessian":[6.9409247E2,2.6062833E2,4.3346417E2,4.8431927E1,2.121964E2,2.7714868E2,1.5631548E2,2.714468E0,4.571746E1,1.6385878E2,4.8337624E1,1.9379521E2,8.3353485E1,1.04317665E2,5.199781E1,1.3227394E0,1.3917286E0,3.9487362E1,6.2300987E0,8.8263306E1,7.5595474E1,8.971596E0,3.9366028E1,1.6552751E2,2.8267706E1,6.122476E1,2.2128723E1,9.950748E1,4.8101892E0,9.700135E0,4.2297676E1],"tree_param":{"num_deleted":"0","num_feature":"6","num_nodes":"31","size_leaf_vector":"1"}},{"base_weights":[-1.4684333E-1,-1.578884E-1,1.2542829E-1,-1.7458603E-1,4.399361E-2,3.126889E-2,1.726329E-2,-1.2841779E-1,-2.6908457E-1,4.2778686E-1,-8.982941E-2,1.897246E-1,-3.3001733E-1,1.4971752E-2,-4.2324923E-3,-4.0800385E-3,-9.543281E-3,2.3577938E-2,-2.9329504E-3,9.335624E-3,-6.1137974E-3,2.9607246E-2,7.553112E-4,-1.620577E-2,-4.294338E-4],"categories":[],"categories_nodes":[],"categories_segments":[],"categories_sizes":[],"default_left":[0,0,0,0,0,0,0,0,0,0,0,0,0,0,0,0,0,0,0,0,0,0,0,0,0],"id":19,"left_children":[1,3,5,7,9,11,-1,13,15,17,19,21,23,-1,-1,-1,-1,-1,-1,-1,-1,-1,-1,-1,-1],"loss_changes":[1.9679527E0,2.1077967E0,1.0757542E0,2.4767475E0,2.5238051E0,1.3451599E0,0E0,3.158711E0,1.1833792E0,2.4643385E0,1.7409598E0,2.101252E0,4.6969277E-1,0E0,0E0,0E0,0E0,0E0,0E0,0E0,0E0,0E0,0E0,0E0,0E0],"parents":[2147483647,0,0,1,1,2,2,3,3,4,4,5,5,7,7,8,8,9,9,10,10,11,11,12,12],"right_children":[2,4,6,8,10,12,-1,14,16,18,20,22,24,-1,-1,-1,-1,-1,-1,-1,-1,-1,-1,-1,-1],"split_conditions":[2.8E0,2.6E0,1E0,1.8E0,1E0,2E0,1.726329E-2,2E-1,1.2E0,2.25E0,7.5E-1,6.666667E-1,2.5E-1,1.4971752E-2,-4.2324923E-3,-4.0800385E-3,-9.543281E-3,2.3577938E-2,-2.9329504E-3,9.335624E-3,-6.1137974E-3,2.9607246E-2,7.553112E-4,-1.620577E-2,-4.294338E-4],"split_indices":[2,3,0,0,2,5,0,3,5,0,0,4,0,0,0,0,0,0,0,0,0,0,0,0,0],"split_type":[0,0,0,0,0,0,0,0,0,0,0,0,0,0,0,0,0,0,0,0,0,0,0,0,0],"sum_hessian":[6.468162E2,6.220039E2,2.4812302E1,5.74613E2,4.7390953E1,2.1403414E1,3.4088871E0,3.8760397E2,1.8700899E2,1.1684402E1,3.570655E1,1.5208164E1,6.1952505E0,6.908982E0,3.80695E2,5.1360188E1,1.356488E2,6.6543E0,5.0301023E0,7.5187907E0,2.8187761E1,1.7469596E0,1.3461205E1,3.29234E0,2.9029107E0],"tree_param":{"num_deleted":"0","num_feature":"6","num_nodes":"25","size_leaf_vector":"1"}},{"base_weights":[1.2849599E-1,-6.5558806E-2,2.939785E-1,3.683552E-2,-3.4383237E-1,-5.5944208E-2,3.4017134E-1,4.200505E-3,5.0305873E-1,-2.2211248E-1,-5.030063E-1,2.2417274E-1,-5.872831E-1,2.2572687E-1,4.7211206E-1,2.7878166E-3,-3.5641708E-3,-3.6555994E-3,2.2882612E-2,-1.349631E-2,-3.9815386E-3,-3.4899435E-3,-1.6558314E-2,1.9077787E-2,1.9635595E-3,-4.5025554E-3,-1.894299E-2,2.1873098E-2,5.6696213E-3,1.6230475E-2,7.9117725E-3],"categories":[],"categories_nodes":[],"categories_segments":[],"categories_sizes":[],"default_left":[0,0,0,0,0,0,0,0,0,0,0,0,0,0,0,0,0,0,0,0,0,0,0,0,0,0,0,0,0,0,0],"id":20,"left_children":[1,3,5,7,9,11,13,15,17,19,21,23,25,27,29,-1,-1,-1,-1,-1,-1,-1,-1,-1,-1,-1,-1,-1,-1,-1,-1],"loss_changes":[2.3702843E1,9.708193E0,6.4562225E0,3.7962918E0,1.6634684E0,7.1716223E0,5.207752E0,2.5684173E0,2.7419853E0,1.0339096E0,6.721401E-1,2.0298026E0,2.2573137E-1,3.3831425E0,2.191452E0,0E0,0E0,0E0,0E0,0E0,0E0,0E0,0E0,0E0,0E0,0E0,0E0,0E0,0E0,0E0,0E0],"parents":[2147483647,0,0,1,1,2,2,3,3,4,4,5,5,6,6,7,7,8,8,9,9,10,10,11,11,12,12,13,13,14,14],"right_children":[2,4,6,8,10,12,14,16,18,20,22,24,26,28,30,-1,-1,-1,-1,-1,-1,-1,-1,-1,-1,-1,-1,-1,-1,-1,-1],"split_conditions":[1.3333334E0,2E0,8E-1,2.8E0,2.25E0,2.2E0,2E0,2E0,6.666667E-1,1.5E0,1.6666666E0,8E-1,2.2E0,5E-1,1.75E0,2.7878166E-3,-3.5641708E-3,-3.6555994E-3,2.2882612E-2,-1.349631E-2,-3.9815386E-3,-3.4899435E-3,-1.6558314E-2,1.9077787E-2,1.9635595E-3,-4.5025554E-3,-1.894299E-2,2.1873098E-2,5.6696213E-3,1.6230475E-2,7.9117725E-3],"split_indices":[0,3,5,5,3,4,0,2,4,2,4,2,3,4,3,0,0,0,0,0,0,0,0,0,0,0,0,0,0,0,0],"split_type":[0,0,0,0,0,0,0,0,0,0,0,0,0,0,0,0,0,0,0,0,0,0,0,0,0,0,0,0,0,0,0],"sum_hessian":[7.365145E2,3.3926996E2,3.9724457E2,2.4864534E2,9.062462E1,4.6299854E1,3.509447E2,2.3332211E2,1.5323233E1,5.2711597E1,3.791302E1,3.0695543E1,1.5604309E1,1.8938463E2,1.6156007E2,1.3569049E2,9.763161E1,4.6542797E0,1.0668953E1,1.3720702E1,3.8990894E1,4.638616E0,3.3274403E1,7.7037907E0,2.2991753E1,1.8347739E0,1.3769535E1,1.1600349E1,1.7778429E2,1.2021446E2,4.1345623E1],"tree_param":{"num_deleted":"0","num_feature":"6","num_nodes":"31","size_leaf_vector":"1"}},{"base_weights":[6.1991165E-4,2.0156804E-1,-1.2092884E-1,-1.9466054E-1,2.919501E-1,-3.941458E-2,-2.6478395E-1,5.1197046E-1,-2.4692518E-1,5.904853E-1,2.3282903E-1,4.028661E-2,-2.2361366E-1,-3.8927925E-1,-1.3640344E-2,2.3137798E-4,2.358896E-2,-5.3207516E-3,-1.8158255E-2,-6.6402755E-3,1.9612746E-2,-1.1815401E-3,8.38469E-3,2.7418595E-3,-3.5560117E-3,-7.169589E-3,1.235367E-2,-1.3098677E-2,-4.226509E-3,1.4743666E-2,-4.173641E-3],"categories":[],"categories_nodes":[],"categories_segments":[],"categories_sizes":[],"default_left":[0,0,0,0,0,0,0,0,0,0,0,0,0,0,0,0,0,0,0,0,0,0,0,0,0,0,0,0,0,0,0],"id":21,"left_children":[1,3,5,7,9,11,13,15,17,19,21,23,25,27,29,-1,-1,-1,-1,-1,-1,-1,-1,-1,-1,-1,-1,-1,-1,-1,-1],"loss_changes":[1.6992867E1,9.447214E0,5.0729456E0,1.9472666E0,3.6379814E0,4.0886006E0,4.891608E0,5.0864697E-1,1.0539079E0,1.9275799E0,2.2998714E0,1.5921037E0,9.19662E-1,1.1694689E0,3.4239488E0,0E0,0E0,0E0,0E0,0E0,0E0,0E0,0E0,0E0,0E0,0E0,0E0,0E0,0E0,0E0,0E0],"parents":[2147483647,0,0,1,1,2,2,3,3,4,4,5,5,6,6,7,7,8,8,9,9,10,10,11,11,12,12,13,13,14,14],"right_children":[2,4,6,8,10,12,14,16,18,20,22,24,26,28,30,-1,-1,-1,-1,-1,-1,-1,-1,-1,-1,-1,-1,-1,-1,-1,-1],"split_conditions":[1.2E0,7.5E-1,2E0,1.25E0,6.666667E-1,1.75E0,1.6666666E0,1.2E0,3E0,5E-1,1E0,2E0,2.75E0,1.6666666E0,8E-1,2.3137798E-4,2.358896E-2,-5.3207516E-3,-1.8158255E-2,-6.6402755E-3,1.9612746E-2,-1.1815401E-3,8.38469E-3,2.7418595E-3,-3.5560117E-3,-7.169589E-3,1.235367E-2,-1.3098677E-2,-4.226509E-3,1.4743666E-2,-4.173641E-3],"split_indices":[0,3,1,5,5,5,4,5,5,4,4,0,2,2,5,0,0,0,0,0,0,0,0,0,0,0,0,0,0,0,0],"split_type":[0,0,0,0,0,0,0,0,0,0,0,0,0,0,0,0,0,0,0,0,0,0,0,0,0,0,0,0,0,0,0],"sum_hessian":[6.937183E2,2.6121362E2,4.3250473E2,4.8302982E1,2.1291064E2,2.7688452E2,1.5562021E2,2.720837E0,4.5582146E1,3.3708736E1,1.792019E2,1.9380725E2,8.307726E1,1.0367639E2,5.194382E1,1.320911E0,1.399926E0,3.9423717E1,6.1584277E0,2.2566328E0,3.1452103E1,2.624529E1,1.529566E2,1.4694469E2,4.686256E1,8.172396E1,1.3533086E0,8.644292E1,1.7233475E1,9.756128E0,4.218769E1],"tree_param":{"num_deleted":"0","num_feature":"6","num_nodes":"31","size_leaf_vector":"1"}},{"base_weights":[-1.439206E-1,2.5430244E-1,-1.5122741E-1,7.4600154E-1,-3.7883807E-2,-1.5595326E-1,5.5115163E-1,2.8867105E-2,7.695668E-3,-3.9868525E-1,4.778875E-1,-1.7076132E-1,1.9619547E-2,-2.5964782E-3,2.9308356E-2,-1.6025707E-2,8.1055245E-4,1.4161528E-3,1.9826053E-2,-3.8467017E-3,-7.869921E-3,-5.4203747E-3,8.929216E-3],"categories":[],"categories_nodes":[],"categories_segments":[],"categories_sizes":[],"default_left":[0,0,0,0,0,0,0,0,0,0,0,0,0,0,0,0,0,0,0,0,0,0,0],"id":22,"left_children":[1,3,5,7,9,11,13,-1,-1,15,17,19,21,-1,-1,-1,-1,-1,-1,-1,-1,-1,-1],"loss_changes":[1.9178944E0,1.7538433E0,2.1933966E0,2.321341E-1,1.7696266E0,1.6450195E0,1.2966114E0,0E0,0E0,3.3389723E-1,2.7989674E-1,2.2350159E0,2.8387475E0,0E0,0E0,0E0,0E0,0E0,0E0,0E0,0E0,0E0,0E0],"parents":[2147483647,0,0,1,1,2,2,3,3,4,4,5,5,6,6,9,9,10,10,11,11,12,12],"right_children":[2,4,6,8,10,12,14,-1,-1,16,18,20,22,-1,-1,-1,-1,-1,-1,-1,-1,-1,-1],"split_conditions":[2E-1,1E0,3.6E0,2.3333333E0,7.5E-1,2.6E0,6.666667E-1,2.8867105E-2,7.695668E-3,1.75E0,1.4E0,1.8E0,1.5E0,-2.5964782E-3,2.9308356E-2,-1.6025707E-2,8.1055245E-4,1.4161528E-3,1.9826053E-2,-3.8467017E-3,-7.869921E-3,-5.4203747E-3,8.929216E-3],"split_indices":[3,1,2,2,4,3,1,0,0,2,1,0,0,0,0,0,0,0,0,0,0,0,0],"split_type":[0,0,0,0,0,0,0,0,0,0,0,0,0,0,0,0,0,0,0,0,0,0,0],"sum_hessian":[6.449121E2,1.1010923E1,6.339012E2,3.5252926E0,7.485631E0,6.304374E2,3.4638238E0,1.7752218E0,1.7500708E0,4.538083E0,2.947548E0,5.8142645E2,4.9010914E1,1.7058088E0,1.758015E0,3.2490444E0,1.2890387E0,1.2539955E0,1.6935525E0,3.9864087E2,1.8278558E2,2.8690863E1,2.0320051E1],"tree_param":{"num_deleted":"0","num_feature":"6","num_nodes":"23","size_leaf_vector":"1"}},{"base_weights":[1.2535392E-1,-6.426995E-2,2.8646758E-1,3.6011577E-2,-3.3816463E-1,-5.512578E-2,3.3135772E-1,4.0071616E-3,4.918058E-1,-2.1844888E-1,-4.9552283E-1,2.1919806E-1,-5.804575E-1,2.1987012E-1,4.5969495E-1,2.7396025E-3,-3.5173183E-3,-3.6691676E-3,2.238509E-2,-1.3344219E-2,-3.895279E-3,-3.4658955E-3,-1.631919E-2,1.8698933E-2,1.8923E-3,-4.4132047E-3,-1.8736128E-2,2.1426108E-2,5.5120527E-3,1.5796248E-2,7.7151414E-3],"categories":[],"categories_nodes":[],"categories_segments":[],"categories_sizes":[],"default_left":[0,0,0,0,0,0,0,0,0,0,0,0,0,0,0,0,0,0,0,0,0,0,0,0,0,0,0,0,0,0,0],"id":23,"left_children":[1,3,5,7,9,11,13,15,17,19,21,23,25,27,29,-1,-1,-1,-1,-1,-1,-1,-1,-1,-1,-1,-1,-1,-1,-1,-1],"loss_changes":[2.2569489E1,9.34776E0,6.1405296E0,3.6405144E0,1.6095858E0,6.933752E0,4.95002E0,2.4914632E0,2.6490993E0,1.0168264E0,6.480217E-1,1.9640137E0,2.2286987E-1,3.277544E0,2.0739174E0,0E0,0E0,0E0,0E0,0E0,0E0,0E0,0E0,0E0,0E0,0E0,0E0,0E0,0E0,0E0,0E0],"parents":[2147483647,0,0,1,1,2,2,3,3,4,4,5,5,6,6,7,7,8,8,9,9,10,10,11,11,12,12,13,13,14,14],"right_children":[2,4,6,8,10,12,14,16,18,20,22,24,26,28,30,-1,-1,-1,-1,-1,-1,-1,-1,-1,-1,-1,-1,-1,-1,-1,-1],"split_conditions":[1.3333334E0,2E0,8E-1,2.8E0,2.25E0,2.2E0,2E0,2E0,6.666667E-1,1.5E0,1.6666666E0,8E-1,2.2E0,5E-1,1.75E0,2.7396025E-3,-3.5173183E-3,-3.6691676E-3,2.238509E-2,-1.3344219E-2,-3.895279E-3,-3.4658955E-3,-1.631919E-2,1.8698933E-2,1.8923E-3,-4.4132047E-3,-1.8736128E-2,2.1426108E-2,5.5120527E-3,1.5796248E-2,7.7151414E-3],"split_indices":[0,3,5,5,3,4,0,2,4,2,4,2,3,4,3,0,0,0,0,0,0,0,0,0,0,0,0,0,0,0,0],"split_type":[0,0,0,0,0,0,0,0,0,0,0,0,0,0,0,0,0,0,0,0,0,0,0,0,0,0,0,0,0,0,0],"sum_hessian":[7.371453E2,3.3888882E2,3.9825647E2,2.4870029E2,9.0188545E1,4.623107E1,3.5202542E2,2.333257E2,1.5374595E1,5.257699E1,3.7611557E1,3.0754217E1,1.5476852E1,1.8983096E2,1.6219444E2,1.357901E2,9.75356E1,4.655055E0,1.071954E1,1.3660095E1,3.8916893E1,4.636006E0,3.2975548E1,7.7366147E0,2.3017603E1,1.8293923E0,1.364746E1,1.165287E1,1.781781E2,1.2074156E2,4.145289E1],"tree_param":{"num_deleted":"0","num_feature":"6","num_nodes":"31","size_leaf_vector":"1"}},{"base_weights":[7.005173E-4,1.967483E-1,-1.1842191E-1,-1.9189326E-1,2.84861E-1,-3.8244665E-2,-2.604165E-1,5.0658095E-1,-2.4383716E-1,5.750955E-1,2.2720103E-1,4.0049314E-2,-2.1982592E-1,-3.8387877E-1,-1.2598861E-2,2.6491703E-4,2.3262164E-2,-5.259468E-3,-1.7989755E-2,-6.5818997E-3,1.9097384E-2,-1.1867072E-3,8.183568E-3,7.360269E-5,7.552303E-3,-4.5822174E-3,-1.1737038E-2,-1.2218022E-2,2.519967E-3,1.4403893E-2,-4.0774047E-3],"categories":[],"categories_nodes":[],"categories_segments":[],"categories_sizes":[],"default_left":[0,0,0,0,0,0,0,0,0,0,0,0,0,0,0,0,0,0,0,0,0,0,0,0,0,0,0,0,0,0,0],"id":24,"left_children":[1,3,5,7,9,11,13,15,17,19,21,23,25,27,29,-1,-1,-1,-1,-1,-1,-1,-1,-1,-1,-1,-1,-1,-1,-1,-1],"loss_changes":[1.6238539E1,9.054306E0,4.914231E0,1.9074475E0,3.4612942E0,3.955482E0,4.7656364E0,4.9204218E-1,1.0271585E0,1.8455048E0,2.2083216E0,1.5499027E0,9.0375185E-1,1.1726799E0,3.2783651E0,0E0,0E0,0E0,0E0,0E0,0E0,0E0,0E0,0E0,0E0,0E0,0E0,0E0,0E0,0E0,0E0],"parents":[2147483647,0,0,1,1,2,2,3,3,4,4,5,5,6,6,7,7,8,8,9,9,10,10,11,11,12,12,13,13,14,14],"right_children":[2,4,6,8,10,12,14,16,18,20,22,24,26,28,30,-1,-1,-1,-1,-1,-1,-1,-1,-1,-1,-1,-1,-1,-1,-1,-1],"split_conditions":[1.2E0,7.5E-1,2E0,1.25E0,6.666667E-1,1.75E0,1.6666666E0,1.2E0,3E0,5E-1,1E0,2.4E0,2.3333333E0,3E0,8E-1,2.6491703E-4,2.3262164E-2,-5.259468E-3,-1.7989755E-2,-6.5818997E-3,1.9097384E-2,-1.1867072E-3,8.183568E-3,7.360269E-5,7.552303E-3,-4.5822174E-3,-1.1737038E-2,-1.2218022E-2,2.519967E-3,1.4403893E-2,-4.0774047E-3],"split_indices":[0,3,1,5,5,5,4,5,5,4,4,4,5,5,5,0,0,0,0,0,0,0,0,0,0,0,0,0,0,0,0],"split_type":[0,0,0,0,0,0,0,0,0,0,0,0,0,0,0,0,0,0,0,0,0,0,0,0,0,0,0,0,0,0,0],"sum_hessian":[6.933331E2,2.6180743E2,4.3152573E2,4.8169003E1,2.1363843E2,2.7660822E2,1.5491751E2,2.7284102E0,4.544059E1,3.3921062E1,1.7971736E2,1.9381763E2,8.2790596E1,1.0303609E2,5.1881416E1,1.3190084E0,1.409402E0,3.9354656E1,6.0859356E0,2.2520344E0,3.166903E1,2.6248001E1,1.5346936E2,1.6544666E2,2.8370968E1,6.0861805E1,2.1928793E1,9.825403E1,4.7820544E0,9.806004E0,4.2075413E1],"tree_param":{"num_deleted":"0","num_feature":"6","num_nodes":"31","size_leaf_vector":"1"}},{"base_weights":[-1.4102925E-1,-1.5190178E-1,1.2535852E-1,-1.681782E-1,4.3631826E-2,3.210823E-2,1.7058957E-2,-1.2357063E-1,-2.600095E-1,4.1575605E-1,-8.72425E-2,1.8849432E-1,-3.264052E-1,1.4588081E-2,-4.0807305E-3,-8.566842E-3,-4.9295503E-4,2.2871569E-2,-2.9326803E-3,9.31094E-3,-6.0217152E-3,1.3281141E-2,-8.315224E-3,-1.611334E-2,-3.4132495E-4],"categories":[],"categories_nodes":[],"categories_segments":[],"categories_sizes":[],"default_left":[0,0,0,0,0,0,0,0,0,0,0,0,0,0,0,0,0,0,0,0,0,0,0,0,0],"id":25,"left_children":[1,3,5,7,9,11,-1,13,15,17,19,21,23,-1,-1,-1,-1,-1,-1,-1,-1,-1,-1,-1,-1],"loss_changes":[1.8843784E0,1.9781103E0,1.0483315E0,2.3104095E0,2.3923938E0,1.3162053E0,0E0,3.0037966E0,1.1533108E0,2.3459754E0,1.7145283E0,2.0422645E0,4.693492E-1,0E0,0E0,0E0,0E0,0E0,0E0,0E0,0E0,0E0,0E0,0E0,0E0],"parents":[2147483647,0,0,1,1,2,2,3,3,4,4,5,5,7,7,8,8,9,9,10,10,11,11,12,12],"right_children":[2,4,6,8,10,12,-1,14,16,18,20,22,24,-1,-1,-1,-1,-1,-1,-1,-1,-1,-1,-1,-1],"split_conditions":[2.8E0,2.6E0,1E0,1.8E0,1E0,2E0,1.7058957E-2,2E-1,2.4E0,2.25E0,7.5E-1,2E0,2.5E-1,1.4588081E-2,-4.0807305E-3,-8.566842E-3,-4.9295503E-4,2.2871569E-2,-2.9326803E-3,9.31094E-3,-6.0217152E-3,1.3281141E-2,-8.315224E-3,-1.611334E-2,-3.4132495E-4],"split_indices":[2,3,0,0,2,5,0,3,4,0,0,3,0,0,0,0,0,0,0,0,0,0,0,0,0],"split_type":[0,0,0,0,0,0,0,0,0,0,0,0,0,0,0,0,0,0,0,0,0,0,0,0,0],"sum_hessian":[6.4303925E2,6.182359E2,2.4803303E1,5.7085706E2,4.7378838E1,2.1378416E1,3.4248877E0,3.8579877E2,1.8505832E2,1.1761051E1,3.5617786E1,1.52155285E1,6.1628876E0,6.9594436E0,3.7883932E2,1.6733237E2,1.7725945E1,6.732109E0,5.0289416E0,7.523297E0,2.809449E1,9.874377E0,5.341151E0,3.2704692E0,2.8924184E0],"tree_param":{"num_deleted":"0","num_feature":"6","num_nodes":"25","size_leaf_vector":"1"}},{"base_weights":[1.22297645E-1,-6.2964E-2,2.791585E-1,3.5364196E-2,-3.3277315E-1,-5.454528E-2,3.2282832E-1,3.9745118E-3,4.8113593E-1,-2.1419238E-1,-4.892562E-1,2.1459498E-1,-5.7443285E-1,2.1451123E-1,4.4731176E-1,2.6934254E-3,-3.4620739E-3,-3.6795372E-3,2.1915305E-2,-7.3750475E-3,9.967988E-3,-3.3644275E-3,-1.6129084E-2,1.833501E-2,1.8314513E-3,-4.354013E-3,-1.8551137E-2,2.0995624E-2,5.369414E-3,1.5372362E-2,7.4965246E-3],"categories":[],"categories_nodes":[],"categories_segments":[],"categories_sizes":[],"default_left":[0,0,0,0,0,0,0,0,0,0,0,0,0,0,0,0,0,0,0,0,0,0,0,0,0,0,0,0,0,0,0],"id":26,"left_children":[1,3,5,7,9,11,13,15,17,19,21,23,25,27,29,-1,-1,-1,-1,-1,-1,-1,-1,-1,-1,-1,-1,-1,-1,-1,-1],"loss_changes":[2.1484592E1,9.018852E0,5.8496017E0,3.4924717E0,1.5796585E0,6.7229376E0,4.677704E0,2.4104714E0,2.561937E0,1.0054152E0,6.3948536E-1,1.8994222E0,2.1885967E-1,3.1724205E0,1.9772339E0,0E0,0E0,0E0,0E0,0E0,0E0,0E0,0E0,0E0,0E0,0E0,0E0,0E0,0E0,0E0,0E0],"parents":[2147483647,0,0,1,1,2,2,3,3,4,4,5,5,6,6,7,7,8,8,9,9,10,10,11,11,12,12,13,13,14,14],"right_children":[2,4,6,8,10,12,14,16,18,20,22,24,26,28,30,-1,-1,-1,-1,-1,-1,-1,-1,-1,-1,-1,-1,-1,-1,-1,-1],"split_conditions":[1.3333334E0,2E0,8E-1,2.8E0,2.25E0,2.2E0,2E0,2E0,6.666667E-1,2E0,1.6666666E0,8E-1,2.2E0,5E-1,1.75E0,2.6934254E-3,-3.4620739E-3,-3.6795372E-3,2.1915305E-2,-7.3750475E-3,9.967988E-3,-3.3644275E-3,-1.6129084E-2,1.833501E-2,1.8314513E-3,-4.354013E-3,-1.8551137E-2,2.0995624E-2,5.369414E-3,1.5372362E-2,7.4965246E-3],"split_indices":[0,3,5,5,3,4,0,2,4,1,4,2,3,4,3,0,0,0,0,0,0,0,0,0,0,0,0,0,0,0,0],"split_type":[0,0,0,0,0,0,0,0,0,0,0,0,0,0,0,0,0,0,0,0,0,0,0,0,0,0,0,0,0,0,0],"sum_hessian":[7.377058E2,3.385076E2,3.9919818E2,2.4873026E2,8.977735E1,4.6166527E1,3.5303168E2,2.3331027E2,1.5419976E1,5.2421684E1,3.7355667E1,3.080588E1,1.5360648E1,1.9022977E2,1.628019E2,1.3588567E2,9.742461E1,4.6557055E0,1.0764272E1,5.0072388E1,2.3492966E0,4.6247816E0,3.2730885E1,7.766539E0,2.3039341E1,1.8257093E0,1.3534939E1,1.1700887E1,1.7852887E2,1.2123131E2,4.157059E1],"tree_param":{"num_deleted":"0","num_feature":"6","num_nodes":"31","size_leaf_vector":"1"}},{"base_weights":[7.8730733E-4,1.9214791E-1,-1.1599139E-1,-1.8920246E-1,2.7810335E-1,-3.712372E-2,-2.561621E-1,5.0172967E-1,-2.408542E-1,5.605094E-1,2.2183746E-1,3.9813615E-2,-2.1616457E-1,-3.7863022E-1,-1.152277E-2,2.7530733E-4,2.299894E-2,-5.2003255E-3,-1.7829034E-2,-6.525132E-3,1.8609723E-2,-1.1869465E-3,7.99115E-3,2.6743992E-3,-3.4269788E-3,-6.945485E-3,1.2347881E-2,-1.2058124E-2,2.5387665E-3,1.40524395E-2,-3.976386E-3],"categories":[],"categories_nodes":[],"categories_segments":[],"categories_sizes":[],"default_left":[0,0,0,0,0,0,0,0,0,0,0,0,0,0,0,0,0,0,0,0,0,0,0,0,0,0,0,0,0,0,0],"id":27,"left_children":[1,3,5,7,9,11,13,15,17,19,21,23,25,27,29,-1,-1,-1,-1,-1,-1,-1,-1,-1,-1,-1,-1,-1,-1,-1,-1],"loss_changes":[1.5529098E1,8.685216E0,4.7613444E0,1.8708498E0,3.2970562E0,3.8289397E0,4.6460733E0,4.8032194E-1,1.001787E0,1.7691774E0,2.1199808E0,1.4907795E0,9.0011954E-1,1.1505136E0,3.129651E0,0E0,0E0,0E0,0E0,0E0,0E0,0E0,0E0,0E0,0E0,0E0,0E0,0E0,0E0,0E0,0E0],"parents":[2147483647,0,0,1,1,2,2,3,3,4,4,5,5,6,6,7,7,8,8,9,9,10,10,11,11,12,12,13,13,14,14],"right_children":[2,4,6,8,10,12,14,16,18,20,22,24,26,28,30,-1,-1,-1,-1,-1,-1,-1,-1,-1,-1,-1,-1,-1,-1,-1,-1],"split_conditions":[1.2E0,7.5E-1,2E0,1.25E0,6.666667E-1,1.75E0,1.6666666E0,1.2E0,3E0,5E-1,1E0,2E0,2.75E0,3E0,8E-1,2.7530733E-4,2.299894E-2,-5.2003255E-3,-1.7829034E-2,-6.525132E-3,1.8609723E-2,-1.1869465E-3,7.99115E-3,2.6743992E-3,-3.4269788E-3,-6.945485E-3,1.2347881E-2,-1.2058124E-2,2.5387665E-3,1.40524395E-2,-3.976386E-3],"split_indices":[0,3,1,5,5,5,4,5,5,4,4,0,2,5,5,0,0,0,0,0,0,0,0,0,0,0,0,0,0,0,0],"split_type":[0,0,0,0,0,0,0,0,0,0,0,0,0,0,0,0,0,0,0,0,0,0,0,0,0,0,0,0,0,0,0],"sum_hessian":[6.9291504E2,2.623565E2,4.3055856E2,4.803647E1,2.1432004E2,2.763397E2,1.5421887E2,2.7351654E0,4.5301304E1,3.4117565E1,1.8020247E2,1.9382635E2,8.251333E1,1.0240603E2,5.181285E1,1.3184006E0,1.4167646E0,3.928762E1,6.0136824E0,2.2475271E0,3.1870039E1,2.624774E1,1.5395473E2,1.4712965E2,4.66967E1,8.1159805E1,1.3535227E0,9.762661E1,4.7794166E0,9.856179E0,4.1956673E1],"tree_param":{"num_deleted":"0","num_feature":"6","num_nodes":"31","size_leaf_vector":"1"}},{"base_weights":[-1.3821532E-1,-5.44616E-1,-1.3085051E-1,-1.9801934E-3,-1.8649604E-2,4.0390906E-1,-1.3954706E-1,-1.2935093E-2,6.074502E-1,-1.4423732E-1,5.378743E-1,2.2756498E-2,-1.243632E-3,-4.749395E-3,5.7524315E-4,-2.6997854E-3,2.871554E-2],"categories":[],"categories_nodes":[],"categories_segments":[],"categories_sizes":[],"default_left":[0,0,0,0,0,0,0,0,0,0,0,0,0,0,0,0,0],"id":28,"left_children":[1,3,5,-1,-1,7,9,-1,11,13,15,-1,-1,-1,-1,-1,-1],"loss_changes":[1.8508234E0,3.6875892E-1,2.9958324E0,0E0,0E0,2.0247548E0,2.056058E0,0E0,8.897643E-1,1.4273014E0,1.2690598E0,0E0,0E0,0E0,0E0,0E0,0E0],"parents":[2147483647,0,0,1,1,2,2,5,5,6,6,8,8,9,9,10,10],"right_children":[2,4,6,-1,-1,8,10,-1,12,14,16,-1,-1,-1,-1,-1,-1],"split_conditions":[4E-1,1E0,2E-1,-1.9801934E-3,-1.8649604E-2,1E0,3.6E0,-1.2935093E-2,1.6666666E0,2.6E0,6.666667E-1,2.2756498E-2,-1.243632E-3,-4.749395E-3,5.7524315E-4,-2.6997854E-3,2.871554E-2],"split_indices":[4,0,3,0,0,2,2,0,0,3,1,0,0,0,0,0,0],"split_type":[0,0,0,0,0,0,0,0,0,0,0,0,0,0,0,0,0],"sum_hessian":[6.4118085E2,1.0114238E1,6.3106665E2,1.6597217E0,8.454515E0,9.3713045E0,6.216953E2,1.617355E0,7.753949E0,6.1820215E2,3.4931602E0,6.1523757E0,1.6015733E0,5.692038E2,4.8998367E1,1.713211E0,1.7799492E0],"tree_param":{"num_deleted":"0","num_feature":"6","num_nodes":"17","size_leaf_vector":"1"}},{"base_weights":[1.19341396E-1,-6.1665267E-2,2.7208763E-1,3.4674205E-2,-3.2730526E-1,-5.4099113E-2,3.1459734E-1,3.8986404E-3,4.705975E-1,-2.1001312E-1,-4.8277083E-1,2.0936835E-1,-5.679796E-1,2.089901E-1,4.3583325E-1,2.642683E-3,-3.403871E-3,-3.6999688E-3,2.1461144E-2,-1.3087634E-2,-3.6539973E-3,-3.2929282E-3,-1.5928559E-2,1.7957171E-2,1.7526317E-3,-4.269005E-3,-1.8356424E-2,2.0582972E-2,5.2208155E-3,1.4973709E-2,7.309861E-3],"categories":[],"categories_nodes":[],"categories_segments":[],"categories_sizes":[],"default_left":[0,0,0,0,0,0,0,0,0,0,0,0,0,0,0,0,0,0,0,0,0,0,0,0,0,0,0,0,0,0,0],"id":29,"left_children":[1,3,5,7,9,11,13,15,17,19,21,23,25,27,29,-1,-1,-1,-1,-1,-1,-1,-1,-1,-1,-1,-1,-1,-1,-1,-1],"loss_changes":[2.0453262E1,8.6895485E0,5.5781746E0,3.3488436E0,1.5460768E0,6.4950843E0,4.4536934E0,2.3249977E0,2.4813557E0,1.0099103E0,6.26112E-1,1.8369827E0,2.1625519E-1,3.0772476E0,1.8771114E0,0E0,0E0,0E0,0E0,0E0,0E0,0E0,0E0,0E0,0E0,0E0,0E0,0E0,0E0,0E0,0E0],"parents":[2147483647,0,0,1,1,2,2,3,3,4,4,5,5,6,6,7,7,8,8,9,9,10,10,11,11,12,12,13,13,14,14],"right_children":[2,4,6,8,10,12,14,16,18,20,22,24,26,28,30,-1,-1,-1,-1,-1,-1,-1,-1,-1,-1,-1,-1,-1,-1,-1,-1],"split_conditions":[1.3333334E0,2E0,8E-1,2.8E0,2.25E0,2.2E0,2E0,2E0,6.666667E-1,1.5E0,1.6666666E0,8E-1,2.2E0,5E-1,1.75E0,2.642683E-3,-3.403871E-3,-3.6999688E-3,2.1461144E-2,-1.3087634E-2,-3.6539973E-3,-3.2929282E-3,-1.5928559E-2,1.7957171E-2,1.7526317E-3,-4.269005E-3,-1.8356424E-2,2.0582972E-2,5.2208155E-3,1.4973709E-2,7.309861E-3],"split_indices":[0,3,5,5,3,4,0,2,4,2,4,2,3,4,3,0,0,0,0,0,0,0,0,0,0,0,0,0,0,0,0],"split_type":[0,0,0,0,0,0,0,0,0,0,0,0,0,0,0,0,0,0,0,0,0,0,0,0,0,0,0,0,0,0,0],"sum_hessian":[7.381644E2,3.381032E2,4.0006125E2,2.4875636E2,8.934683E1,4.6094547E1,3.539667E2,2.3329501E2,1.5461353E1,5.2265568E1,3.7081264E1,3.0863398E1,1.5231148E1,1.9063263E2,1.6333408E2,1.359899E2,9.730511E1,4.657161E0,1.0804193E1,1.355513E1,3.8710438E1,4.616858E0,3.246441E1,7.7961884E0,2.306721E1,1.8204925E0,1.3410655E1,1.1744319E1,1.788883E2,1.21666626E2,4.166745E1],"tree_param":{"num_deleted":"0","num_feature":"6","num_nodes":"31","size_leaf_vector":"1"}},{"base_weights":[8.7503414E-4,1.875331E-1,-1.1353092E-1,-1.8652931E-1,2.7135164E-1,-3.606411E-2,-2.5173807E-1,4.963427E-1,-2.378497E-1,5.4674906E-1,2.1635675E-1,3.953363E-2,-2.1258405E-1,-3.73135E-1,-1.0505744E-2,3.0630908E-4,2.268033E-2,-5.143549E-3,-1.7659074E-2,-6.4694765E-3,1.8150277E-2,-1.1973346E-3,7.7968817E-3,8.602369E-5,7.3567093E-3,-4.378764E-3,-1.1504494E-2,-1.2609684E-2,-3.8460547E-3,1.3718167E-2,-3.8791469E-3],"categories":[],"categories_nodes":[],"categories_segments":[],"categories_sizes":[],"default_left":[0,0,0,0,0,0,0,0,0,0,0,0,0,0,0,0,0,0,0,0,0,0,0,0,0,0,0,0,0,0,0],"id":30,"left_children":[1,3,5,7,9,11,13,15,17,19,21,23,25,27,29,-1,-1,-1,-1,-1,-1,-1,-1,-1,-1,-1,-1,-1,-1,-1,-1],"loss_changes":[1.4829782E1,8.324516E0,4.600681E0,1.8317686E0,3.1530037E0,3.7058415E0,4.520088E0,4.6465755E-1,9.7416615E-1,1.6983061E0,2.0376682E0,1.4687343E0,8.9179397E-1,1.133544E0,2.9902518E0,0E0,0E0,0E0,0E0,0E0,0E0,0E0,0E0,0E0,0E0,0E0,0E0,0E0,0E0,0E0,0E0],"parents":[2147483647,0,0,1,1,2,2,3,3,4,4,5,5,6,6,7,7,8,8,9,9,10,10,11,11,12,12,13,13,14,14],"right_children":[2,4,6,8,10,12,14,16,18,20,22,24,26,28,30,-1,-1,-1,-1,-1,-1,-1,-1,-1,-1,-1,-1,-1,-1,-1,-1],"split_conditions":[1.2E0,7.5E-1,2E0,1.25E0,6.666667E-1,1.75E0,1.6666666E0,1.2E0,3E0,5E-1,1E0,2.4E0,2.3333333E0,1.6666666E0,8E-1,3.0630908E-4,2.268033E-2,-5.143549E-3,-1.7659074E-2,-6.4694765E-3,1.8150277E-2,-1.1973346E-3,7.7968817E-3,8.602369E-5,7.3567093E-3,-4.378764E-3,-1.1504494E-2,-1.2609684E-2,-3.8460547E-3,1.3718167E-2,-3.8791469E-3],"split_indices":[0,3,1,5,5,5,4,5,5,4,4,4,5,2,5,0,0,0,0,0,0,0,0,0,0,0,0,0,0,0,0],"split_type":[0,0,0,0,0,0,0,0,0,0,0,0,0,0,0,0,0,0,0,0,0,0,0,0,0,0,0,0,0,0,0],"sum_hessian":[6.9245044E2,2.62892E2,4.295584E2,4.7900036E1,2.1499197E2,2.760756E2,1.5348282E2,2.7420957E0,4.5157944E1,3.429773E1,1.8069424E2,1.9383739E2,8.2238205E1,1.0173783E2,5.174498E1,1.3165904E0,1.4255053E0,3.9222523E1,5.935417E0,2.243082E0,3.2054646E1,2.6253311E1,1.5444093E2,1.653722E2,2.8465202E1,6.0504498E1,2.1733704E1,8.470319E1,1.7034637E1,9.902852E0,4.184213E1],"tree_param":{"num_deleted":"0","num_feature":"6","num_nodes":"31","size_leaf_vector":"1"}},{"base_weights":[-1.3544914E-1,-5.3983706E-1,-1.2816411E-1,-1.98758E-3,-1.8502722E-2,3.975335E-1,-1.3676496E-1,-1.28313815E-2,5.966205E-1,-1.4141725E-1,5.30758E-1,2.2296457E-2,-1.1879776E-3,-4.6578455E-3,5.633521E-4,-2.6804279E-3,2.8267972E-2],"categories":[],"categories_nodes":[],"categories_segments":[],"categories_sizes":[],"default_left":[0,0,0,0,0,0,0,0,0,0,0,0,0,0,0,0,0],"id":31,"left_children":[1,3,5,-1,-1,7,9,-1,11,13,15,-1,-1,-1,-1,-1,-1],"loss_changes":[1.8173513E0,3.6061072E-1,2.9044867E0,0E0,0E0,1.9643674E0,2.003439E0,0E0,8.500569E-1,1.3722763E0,1.2345748E0,0E0,0E0,0E0,0E0,0E0,0E0],"parents":[2147483647,0,0,1,1,2,2,5,5,6,6,8,8,9,9,10,10],"right_children":[2,4,6,-1,-1,8,10,-1,12,14,16,-1,-1,-1,-1,-1,-1],"split_conditions":[4E-1,1E0,2E-1,-1.98758E-3,-1.8502722E-2,1E0,3.6E0,-1.28313815E-2,1.6666666E0,2.6E0,6.666667E-1,2.2296457E-2,-1.1879776E-3,-4.6578455E-3,5.633521E-4,-2.6804279E-3,2.8267972E-2],"split_indices":[4,0,3,0,0,2,2,0,0,3,1,0,0,0,0,0,0],"split_type":[0,0,0,0,0,0,0,0,0,0,0,0,0,0,0,0,0],"sum_hessian":[6.3937665E2,1.0020897E1,6.293557E2,1.6602646E0,8.360632E0,9.403096E0,6.1995264E2,1.604369E0,7.798727E0,6.1644446E2,3.5081635E0,6.201608E0,1.5971189E0,5.674369E2,4.9007603E1,1.7116845E0,1.796479E0],"tree_param":{"num_deleted":"0","num_feature":"6","num_nodes":"17","size_leaf_vector":"1"}},{"base_weights":[1.1646139E-1,-6.0533717E-2,2.6536164E-1,3.3832755E-2,-3.220045E-1,-5.389091E-2,3.0681422E-1,3.6212378E-3,4.6090573E-1,-5.464245E-1,-2.4036883E-1,2.047918E-1,-5.6260115E-1,2.0374793E-1,4.250222E-1,2.5904332E-3,-3.3570179E-3,-3.7043942E-3,2.1037182E-2,-1.7382083E-2,-1.3472383E-4,-3.5582376E-3,-1.1938524E-2,1.7605873E-2,1.6908598E-3,-4.200239E-3,-1.8193971E-2,2.0154512E-2,5.082231E-3,1.6491355E-2,9.841067E-3],"categories":[],"categories_nodes":[],"categories_segments":[],"categories_sizes":[],"default_left":[0,0,0,0,0,0,0,0,0,0,0,0,0,0,0,0,0,0,0,0,0,0,0,0,0,0,0,0,0,0,0],"id":32,"left_children":[1,3,5,7,9,11,13,15,17,19,21,23,25,27,29,-1,-1,-1,-1,-1,-1,-1,-1,-1,-1,-1,-1,-1,-1,-1,-1],"loss_changes":[1.9507225E1,8.368548E0,5.3345623E0,3.2213733E0,1.5161009E0,6.304326E0,4.24844E0,2.2488382E0,2.4033597E0,4.1203117E-1,1.2522147E0,1.7766036E0,2.1392107E-1,2.972395E0,1.8128147E0,0E0,0E0,0E0,0E0,0E0,0E0,0E0,0E0,0E0,0E0,0E0,0E0,0E0,0E0,0E0,0E0],"parents":[2147483647,0,0,1,1,2,2,3,3,4,4,5,5,6,6,7,7,8,8,9,9,10,10,11,11,12,12,13,13,14,14],"right_children":[2,4,6,8,10,12,14,16,18,20,22,24,26,28,30,-1,-1,-1,-1,-1,-1,-1,-1,-1,-1,-1,-1,-1,-1,-1,-1],"split_conditions":[1.3333334E0,2E0,8E-1,2.8E0,1.5E0,2.2E0,2E0,2E0,6.666667E-1,1.25E0,2.25E0,8E-1,2.2E0,5E-1,1.2E0,2.5904332E-3,-3.3570179E-3,-3.7043942E-3,2.1037182E-2,-1.7382083E-2,-1.3472383E-4,-3.5582376E-3,-1.1938524E-2,1.7605873E-2,1.6908598E-3,-4.200239E-3,-1.8193971E-2,2.0154512E-2,5.082231E-3,1.6491355E-2,9.841067E-3],"split_indices":[0,3,5,5,2,4,0,2,4,5,3,2,3,4,3,0,0,0,0,0,0,0,0,0,0,0,0,0,0,0,0],"split_type":[0,0,0,0,0,0,0,0,0,0,0,0,0,0,0,0,0,0,0,0,0,0,0,0,0,0,0,0,0,0,0],"sum_hessian":[7.385729E2,3.3772208E2,4.008508E2,2.487994E2,8.892268E1,4.6031662E1,3.5481912E2,2.3330376E2,1.5495634E1,2.2200119E1,6.6722565E1,3.0910757E1,1.5120906E1,1.9100465E2,1.6381447E2,1.360962E2,9.720754E1,4.657314E0,1.083832E1,2.0861496E1,1.3386239E0,3.862803E1,2.8094538E1,7.822132E0,2.3088625E1,1.816123E0,1.3304783E1,1.1786534E1,1.7921812E2,6.962896E1,9.418552E1],"tree_param":{"num_deleted":"0","num_feature":"6","num_nodes":"31","size_leaf_vector":"1"}},{"base_weights":[9.4250275E-4,1.8306467E-1,-1.1115251E-1,-1.839E-1,2.648216E-1,-3.5045404E-2,-2.4744926E-1,4.910931E-1,-2.3488997E-1,5.3363514E-1,2.1103418E-1,3.927016E-2,-2.0913933E-1,-3.6778563E-1,-9.564611E-3,3.3718225E-4,2.2371242E-2,-5.0872043E-3,-1.7494507E-2,-6.414242E-3,1.7712876E-2,-1.2070123E-3,7.608333E-3,1.0071829E-4,7.203356E-3,3.5535793E-3,-7.239179E-3,-1.1735566E-2,2.773663E-3,1.3394829E-2,-3.7851615E-3],"categories":[],"categories_nodes":[],"categories_segments":[],"categories_sizes":[],"default_left":[0,0,0,0,0,0,0,0,0,0,0,0,0,0,0,0,0,0,0,0,0,0,0,0,0,0,0,0,0,0,0],"id":33,"left_children":[1,3,5,7,9,11,13,15,17,19,21,23,25,27,29,-1,-1,-1,-1,-1,-1,-1,-1,-1,-1,-1,-1,-1,-1,-1,-1],"loss_changes":[1.4167323E1,7.98106E0,4.447373E0,1.793668E0,3.0196247E0,3.589646E0,4.3979654E0,4.4959617E-1,9.478102E-1,1.6317425E0,1.9590702E0,1.4045734E0,9.029069E-1,1.13552E0,2.857746E0,0E0,0E0,0E0,0E0,0E0,0E0,0E0,0E0,0E0,0E0,0E0,0E0,0E0,0E0,0E0,0E0],"parents":[2147483647,0,0,1,1,2,2,3,3,4,4,5,5,6,6,7,7,8,8,9,9,10,10,11,11,12,12,13,13,14,14],"right_children":[2,4,6,8,10,12,14,16,18,20,22,24,26,28,30,-1,-1,-1,-1,-1,-1,-1,-1,-1,-1,-1,-1,-1,-1,-1,-1],"split_conditions":[1.2E0,7.5E-1,2E0,1.25E0,6.666667E-1,1.75E0,1.6666666E0,1.2E0,3E0,5E-1,1E0,2.4E0,5E-1,3E0,8E-1,3.3718225E-4,2.2371242E-2,-5.0872043E-3,-1.7494507E-2,-6.414242E-3,1.7712876E-2,-1.2070123E-3,7.608333E-3,1.0071829E-4,7.203356E-3,3.5535793E-3,-7.239179E-3,-1.1735566E-2,2.773663E-3,1.3394829E-2,-3.7851615E-3],"split_indices":[0,3,1,5,5,5,4,5,5,4,4,4,4,5,5,0,0,0,0,0,0,0,0,0,0,0,0,0,0,0,0],"split_type":[0,0,0,0,0,0,0,0,0,0,0,0,0,0,0,0,0,0,0,0,0,0,0,0,0,0,0,0,0,0,0],"sum_hessian":[6.9197003E2,2.633953E2,4.2857477E2,4.7762897E1,2.156324E2,2.7581744E2,1.5275731E2,2.7484465E0,4.501445E1,3.4465046E1,1.8116736E2,1.9384512E2,8.197233E1,1.0107927E2,5.1678043E1,1.3147601E0,1.4336863E0,3.915737E1,5.8570776E0,2.2386377E0,3.2226406E1,2.6258392E1,1.5490897E2,1.6530359E2,2.8541529E1,7.089443E0,7.488288E1,9.633155E1,4.74772E0,9.946729E0,4.173131E1],"tree_param":{"num_deleted":"0","num_feature":"6","num_nodes":"31","size_leaf_vector":"1"}},{"base_weights":[-1.3272266E-1,-5.3514344E-1,-1.2551716E-1,-1.9946042E-3,-1.8359045E-2,3.9122972E-1,-1.3402115E-1,-1.2737991E-2,5.862061E-1,-1.386339E-1,5.235278E-1,2.1855524E-2,-1.1326638E-3,-4.5690266E-3,5.722531E-4,-2.6613027E-3,2.7818726E-2],"categories":[],"categories_nodes":[],"categories_segments":[],"categories_sizes":[],"default_left":[0,0,0,0,0,0,0,0,0,0,0,0,0,0,0,0,0],"id":34,"left_children":[1,3,5,-1,-1,7,9,-1,11,13,15,-1,-1,-1,-1,-1,-1],"loss_changes":[1.7845135E0,3.5271955E-1,2.8150387E0,0E0,0E0,1.9085219E0,1.9507742E0,0E0,8.125553E-1,1.3300066E0,1.200355E0,0E0,0E0,0E0,0E0,0E0,0E0],"parents":[2147483647,0,0,1,1,2,2,5,5,6,6,8,8,9,9,10,10],"right_children":[2,4,6,-1,-1,8,10,-1,12,14,16,-1,-1,-1,-1,-1,-1],"split_conditions":[4E-1,1E0,2E-1,-1.9946042E-3,-1.8359045E-2,1E0,3.6E0,-1.2737991E-2,1.6666666E0,2.6E0,6.666667E-1,2.1855524E-2,-1.1326638E-3,-4.5690266E-3,5.722531E-4,-2.6613027E-3,2.7818726E-2],"split_indices":[4,0,3,0,0,2,2,0,0,3,1,0,0,0,0,0,0],"split_type":[0,0,0,0,0,0,0,0,0,0,0,0,0,0,0,0,0],"sum_hessian":[6.375906E2,9.926651E0,6.2766394E2,1.660778E0,8.265873E0,9.433431E0,6.182305E2,1.5924649E0,7.8409657E0,6.1470746E2,3.5230548E0,6.248303E0,1.592663E0,5.65717E2,4.899049E1,1.7101681E0,1.8128867E0],"tree_param":{"num_deleted":"0","num_feature":"6","num_nodes":"17","size_leaf_vector":"1"}},{"base_weights":[1.13664314E-1,-5.9478786E-2,2.589045E-1,3.294031E-2,-3.167908E-1,2.9071122E-1,-1.3710243E-1,3.297328E-3,4.5119953E-1,-5.40673E-1,-2.3556982E-1,2.6800904E-1,7.455939E-1,-4.7851968E-1,1.6727643E-2,2.5364545E-3,-3.310895E-3,-3.7266833E-3,2.0627504E-2,-1.720517E-2,-1.3865472E-4,-3.4659859E-3,-1.175E-2,3.9463667E-3,9.590927E-3,2.6311346E-3,2.6294196E-2,-3.6516495E-3,-1.6326547E-2,-6.486289E-3,1.12219555E-2],"categories":[],"categories_nodes":[],"categories_segments":[],"categories_sizes":[],"default_left":[0,0,0,0,0,0,0,0,0,0,0,0,0,0,0,0,0,0,0,0,0,0,0,0,0,0,0,0,0,0,0],"id":35,"left_children":[1,3,5,7,9,11,13,15,17,19,21,23,25,27,29,-1,-1,-1,-1,-1,-1,-1,-1,-1,-1,-1,-1,-1,-1,-1,-1],"loss_changes":[1.8622375E1,8.056567E0,5.1104946E0,3.096188E0,1.5001965E0,3.6516666E0,1.6156182E0,2.1732507E0,2.3335295E0,4.0311766E-1,1.2185972E0,2.4746132E0,1.4013338E0,1.5741873E-1,1.9177531E0,0E0,0E0,0E0,0E0,0E0,0E0,0E0,0E0,0E0,0E0,0E0,0E0,0E0,0E0,0E0,0E0],"parents":[2147483647,0,0,1,1,2,2,3,3,4,4,5,5,6,6,7,7,8,8,9,9,10,10,11,11,12,12,13,13,14,14],"right_children":[2,4,6,8,10,12,14,16,18,20,22,24,26,28,30,-1,-1,-1,-1,-1,-1,-1,-1,-1,-1,-1,-1,-1,-1,-1,-1],"split_conditions":[1.3333334E0,2E0,2.6E0,2.8E0,1.5E0,3.2E0,1.5E0,2E0,6.666667E-1,1.25E0,2.25E0,1.2E0,1E0,2.4E0,8E-1,2.5364545E-3,-3.310895E-3,-3.7266833E-3,2.0627504E-2,-1.720517E-2,-1.3865472E-4,-3.4659859E-3,-1.175E-2,3.9463667E-3,9.590927E-3,2.6311346E-3,2.6294196E-2,-3.6516495E-3,-1.6326547E-2,-6.486289E-3,1.12219555E-2],"split_indices":[0,3,3,5,2,1,1,2,4,5,3,5,4,4,5,0,0,0,0,0,0,0,0,0,0,0,0,0,0,0,0],"split_type":[0,0,0,0,0,0,0,0,0,0,0,0,0,0,0,0,0,0,0,0,0,0,0,0,0,0,0,0,0,0,0],"sum_hessian":[7.389184E2,3.3734937E2,4.0156903E2,2.488438E2,8.850558E1,3.7195963E2,2.9609411E1,2.3331604E2,1.5527756E1,2.205502E1,6.645056E1,3.55792E2,1.6167618E1,8.541446E0,2.1067966E1,1.3620494E2,9.71111E1,4.6595774E0,1.0868178E1,2.0716293E1,1.3387265E0,3.8547806E1,2.7902754E1,9.871592E1,2.5707608E2,2.9597917E0,1.3207826E1,1.7718029E0,6.769643E0,1.2993105E1,8.074861E0],"tree_param":{"num_deleted":"0","num_feature":"6","num_nodes":"31","size_leaf_vector":"1"}},{"base_weights":[1.0315328E-3,1.7871715E-1,-1.0877518E-1,-1.8131395E-1,2.5848013E-1,-3.4006234E-2,-2.4317656E-1,4.8597497E-1,-2.3197436E-1,5.2101004E-1,2.0585766E-1,3.8912944E-2,-2.054375E-1,-3.6277962E-1,-7.7700666E-3,3.6787303E-4,2.2071274E-2,-5.0313105E-3,-1.7335055E-2,-6.3594473E-3,1.7292313E-2,-1.2160278E-3,7.4250773E-3,2.586519E-3,-3.2885207E-3,-4.177474E-3,-1.1276772E-2,-1.1583987E-2,2.8119273E-3,1.31501295E-2,-3.6769153E-3],"categories":[],"categories_nodes":[],"categories_segments":[],"categories_sizes":[],"default_left":[0,0,0,0,0,0,0,0,0,0,0,0,0,0,0,0,0,0,0,0,0,0,0,0,0,0,0,0,0,0,0],"id":36,"left_children":[1,3,5,7,9,11,13,15,17,19,21,23,25,27,29,-1,-1,-1,-1,-1,-1,-1,-1,-1,-1,-1,-1,-1,-1,-1,-1],"loss_changes":[1.3530395E1,7.653101E0,4.298844E0,1.7565162E0,2.89394E0,3.4652076E0,4.3062363E0,4.3511242E-1,9.226384E-1,1.568677E0,1.8839059E0,1.3786458E0,8.8059235E-1,1.1178875E0,2.7465289E0,0E0,0E0,0E0,0E0,0E0,0E0,0E0,0E0,0E0,0E0,0E0,0E0,0E0,0E0,0E0,0E0],"parents":[2147483647,0,0,1,1,2,2,3,3,4,4,5,5,6,6,7,7,8,8,9,9,10,10,11,11,12,12,13,13,14,14],"right_children":[2,4,6,8,10,12,14,16,18,20,22,24,26,28,30,-1,-1,-1,-1,-1,-1,-1,-1,-1,-1,-1,-1,-1,-1,-1,-1],"split_conditions":[1.2E0,7.5E-1,2E0,1.25E0,6.666667E-1,1.75E0,1.6666666E0,1.2E0,3E0,5E-1,1E0,2E0,2.3333333E0,3E0,8E-1,3.6787303E-4,2.2071274E-2,-5.0313105E-3,-1.7335055E-2,-6.3594473E-3,1.7292313E-2,-1.2160278E-3,7.4250773E-3,2.586519E-3,-3.2885207E-3,-4.177474E-3,-1.1276772E-2,-1.1583987E-2,2.8119273E-3,1.31501295E-2,-3.6769153E-3],"split_indices":[0,3,1,5,5,5,4,5,5,4,4,0,5,5,5,0,0,0,0,0,0,0,0,0,0,0,0,0,0,0,0],"split_type":[0,0,0,0,0,0,0,0,0,0,0,0,0,0,0,0,0,0,0,0,0,0,0,0,0,0,0,0,0,0,0],"sum_hessian":[6.9147626E2,2.638673E2,4.2760898E2,4.762523E1,2.1624208E2,2.755632E2,1.5204578E2,2.754233E0,4.4870995E1,3.4620735E1,1.8162134E2,1.9387183E2,8.1691376E1,1.0046262E2,5.158316E1,1.3129132E0,1.4413198E0,3.909222E1,5.778775E0,2.2341962E0,3.238654E1,2.6263018E1,1.5535832E2,1.4735979E2,4.6512035E1,6.0151302E1,2.1540073E1,9.572012E1,4.742497E0,9.980151E0,4.160301E1],"tree_param":{"num_deleted":"0","num_feature":"6","num_nodes":"31","size_leaf_vector":"1"}},{"base_weights":[-1.3004386E-1,-5.3112066E-1,-1.2289895E-1,-2.0012795E-3,-1.8235896E-2,3.8478807E-1,-1.3130261E-1,-1.2639658E-2,5.7556564E-1,-1.358756E-1,5.164837E-1,2.1424208E-2,-1.1042329E-3,-3.855024E-3,-1.2978089E-2,-2.6424048E-3,2.7385235E-2],"categories":[],"categories_nodes":[],"categories_segments":[],"categories_sizes":[],"default_left":[0,0,0,0,0,0,0,0,0,0,0,0,0,0,0,0,0],"id":37,"left_children":[1,3,5,-1,-1,7,9,-1,11,13,15,-1,-1,-1,-1,-1,-1],"loss_changes":[1.7596855E0,3.4597445E-1,2.725543E0,0E0,0E0,1.8517215E0,1.8994923E0,0E0,7.801807E-1,1.2880077E0,1.1676005E0,0E0,0E0,0E0,0E0,0E0,0E0],"parents":[2147483647,0,0,1,1,2,2,5,5,6,6,8,8,9,9,10,10],"right_children":[2,4,6,-1,-1,8,10,-1,12,14,16,-1,-1,-1,-1,-1,-1],"split_conditions":[4E-1,1E0,2E-1,-2.0012795E-3,-1.8235896E-2,1E0,3.6E0,-1.2639658E-2,1.6666666E0,3.2E0,6.666667E-1,2.1424208E-2,-1.1042329E-3,-3.855024E-3,-1.2978089E-2,-2.6424048E-3,2.7385235E-2],"split_indices":[4,0,3,0,0,2,2,0,0,1,1,0,0,0,0,0,0],"split_type":[0,0,0,0,0,0,0,0,0,0,0,0,0,0,0,0,0],"sum_hessian":[6.35838E2,9.845215E0,6.259928E2,1.661263E0,8.183952E0,9.463923E0,6.165289E2,1.5798774E0,7.8840466E0,6.1299176E2,3.5371072E0,6.2936625E0,1.590384E0,5.995244E2,1.3467354E1,1.708662E0,1.8284452E0],"tree_param":{"num_deleted":"0","num_feature":"6","num_nodes":"17","size_leaf_vector":"1"}},{"base_weights":[1.1090675E-1,-5.8463477E-2,2.5256175E-1,3.2043178E-2,-3.1166872E-1,2.9450724E-1,-3.8049966E-2,2.935849E-3,4.4215724E-1,-5.3504133E-1,-2.3085785E-1,2.5114417E-1,5.372303E-1,-5.799238E-1,1.233863E-1,2.4827993E-3,-3.2675301E-3,-3.7275783E-3,2.0235062E-2,-1.7032085E-2,-1.4235136E-4,-3.3753884E-3,-1.1565047E-2,1.2945721E-3,8.172689E-3,1.0154428E-2,2.4126807E-2,-7.367093E-3,-1.9351674E-2,-1.3350364E-2,9.277687E-3],"categories":[],"categories_nodes":[],"categories_segments":[],"categories_sizes":[],"default_left":[0,0,0,0,0,0,0,0,0,0,0,0,0,0,0,0,0,0,0,0,0,0,0,0,0,0,0,0,0,0,0],"id":38,"left_children":[1,3,5,7,9,11,13,15,17,19,21,23,25,27,29,-1,-1,-1,-1,-1,-1,-1,-1,-1,-1,-1,-1,-1,-1,-1,-1],"loss_changes":[1.7775778E1,7.755192E0,4.927536E0,2.9816363E0,1.4846087E0,3.5758228E0,4.599032E0,2.1012542E0,2.2622414E0,3.9449596E-1,1.1860988E0,1.3204021E0,2.5169296E0,1.0412407E-1,4.4375324E0,0E0,0E0,0E0,0E0,0E0,0E0,0E0,0E0,0E0,0E0,0E0,0E0,0E0,0E0,0E0,0E0],"parents":[2147483647,0,0,1,1,2,2,3,3,4,4,5,5,6,6,7,7,8,8,9,9,10,10,11,11,12,12,13,13,14,14],"right_children":[2,4,6,8,10,12,14,16,18,20,22,24,26,28,30,-1,-1,-1,-1,-1,-1,-1,-1,-1,-1,-1,-1,-1,-1,-1,-1],"split_conditions":[1.3333334E0,2E0,2.4E0,2.8E0,1.5E0,2.6E0,8E-1,2E0,6.666667E-1,1.25E0,2.25E0,6.666667E-1,2.6666667E0,1.5E0,1.5E0,2.4827993E-3,-3.2675301E-3,-3.7275783E-3,2.0235062E-2,-1.7032085E-2,-1.4235136E-4,-3.3753884E-3,-1.1565047E-2,1.2945721E-3,8.172689E-3,1.0154428E-2,2.4126807E-2,-7.367093E-3,-1.9351674E-2,-1.3350364E-2,9.277687E-3],"split_indices":[0,3,4,5,2,0,5,2,4,5,3,5,1,0,1,0,0,0,0,0,0,0,0,0,0,0,0,0,0,0,0],"split_type":[0,0,0,0,0,0,0,0,0,0,0,0,0,0,0,0,0,0,0,0,0,0,0,0,0,0,0,0,0,0,0],"sum_hessian":[7.392846E2,3.3697125E2,4.023134E2,2.48883E2,8.808825E1,3.5155783E2,5.075556E1,2.3332985E2,1.5553135E1,2.1908676E1,6.617957E1,2.9999728E2,5.156054E1,1.1055295E1,3.9700268E1,1.3631146E2,9.70184E1,4.6594815E0,1.0893653E1,2.056986E1,1.3388164E0,3.846832E1,2.7711254E1,2.8124031E1,2.7187326E2,3.0857954E1,2.0702587E1,2.5802038E0,8.475091E0,9.439538E0,3.0260729E1],"tree_param":{"num_deleted":"0","num_feature":"6","num_nodes":"31","size_leaf_vector":"1"}},{"base_weights":[1.0997975E-3,1.7451754E-1,-1.0648773E-1,-1.786758E-1,2.5233287E-1,-3.308903E-2,-2.3894241E-1,4.810659E-1,-2.2901085E-1,5.08498E-1,2.0089862E-1,3.852448E-2,-2.0201613E-1,-3.5759997E-1,-6.542204E-3,3.99912E-4,2.178206E-2,-4.9728714E-3,-1.717949E-2,-6.303197E-3,1.6876025E-2,4.996619E-3,1.5184553E-2,2.5464448E-3,-3.2223659E-3,3.6225615E-3,-7.017757E-3,-1.2145544E-2,-3.445025E-3,1.2849988E-2,-3.575592E-3],"categories":[],"categories_nodes":[],"categories_segments":[],"categories_sizes":[],"default_left":[0,0,0,0,0,0,0,0,0,0,0,0,0,0,0,0,0,0,0,0,0,0,0,0,0,0,0,0,0,0,0],"id":39,"left_children":[1,3,5,7,9,11,13,15,17,19,21,23,25,27,29,-1,-1,-1,-1,-1,-1,-1,-1,-1,-1,-1,-1,-1,-1,-1,-1],"loss_changes":[1.2928532E1,7.3365536E0,4.1496196E0,1.7202106E0,2.767723E0,3.3505878E0,4.1979914E0,4.2112875E-1,8.9887094E-1,1.507103E0,1.8347416E0,1.3276265E0,8.7717986E-1,1.1099739E0,2.6229317E0,0E0,0E0,0E0,0E0,0E0,0E0,0E0,0E0,0E0,0E0,0E0,0E0,0E0,0E0,0E0,0E0],"parents":[2147483647,0,0,1,1,2,2,3,3,4,4,5,5,6,6,7,7,8,8,9,9,10,10,11,11,12,12,13,13,14,14],"right_children":[2,4,6,8,10,12,14,16,18,20,22,24,26,28,30,-1,-1,-1,-1,-1,-1,-1,-1,-1,-1,-1,-1,-1,-1,-1,-1],"split_conditions":[1.2E0,7.5E-1,2E0,1.25E0,6.666667E-1,1.75E0,1.6666666E0,1.2E0,3E0,5E-1,2.6E0,2E0,5E-1,1.6666666E0,8E-1,3.99912E-4,2.178206E-2,-4.9728714E-3,-1.717949E-2,-6.303197E-3,1.6876025E-2,4.996619E-3,1.5184553E-2,2.5464448E-3,-3.2223659E-3,3.6225615E-3,-7.017757E-3,-1.2145544E-2,-3.445025E-3,1.2849988E-2,-3.575592E-3],"split_indices":[0,3,1,5,5,5,4,5,5,4,4,0,4,2,5,0,0,0,0,0,0,0,0,0,0,0,0,0,0,0,0],"split_type":[0,0,0,0,0,0,0,0,0,0,0,0,0,0,0,0,0,0,0,0,0,0,0,0,0,0,0,0,0,0,0],"sum_hessian":[6.90941E2,2.6430002E2,4.2664096E2,4.748335E1,2.1681668E2,2.7532285E2,1.5131812E2,2.7593434E0,4.4724007E1,3.476841E1,1.8204826E2,1.9389612E2,8.142672E1,9.981593E1,5.1502174E1,1.310972E0,1.4483714E0,3.902384E1,5.700162E0,2.2296023E0,3.253881E1,1.6502644E2,1.7021828E1,1.474703E2,4.642581E1,7.0751963E0,7.4351524E1,8.299439E1,1.6821545E1,1.0019249E1,4.1482925E1],"tree_param":{"num_deleted":"0","num_feature":"6","num_nodes":"31","size_leaf_vector":"1"}},{"base_weights":[-1.2740162E-1,-5.272625E-1,-1.20314516E-1,-2.0076195E-3,-1.8118318E-2,3.780545E-1,-1.2861262E-1,-1.2556229E-2,5.6495965E-1,-1.3314569E-1,5.096188E-1,2.1004466E-2,-1.0899429E-3,-4.3973546E-3,6.3558633E-4,-2.623741E-3,2.6966738E-2],"categories":[],"categories_nodes":[],"categories_segments":[],"categories_sizes":[],"default_left":[0,0,0,0,0,0,0,0,0,0,0,0,0,0,0,0,0],"id":40,"left_children":[1,3,5,-1,-1,7,9,-1,11,13,15,-1,-1,-1,-1,-1,-1],"loss_changes":[1.7363529E0,3.395784E-1,2.634718E0,0E0,0E0,1.7991128E0,1.8495722E0,0E0,7.510555E-1,1.2724533E0,1.1362301E0,0E0,0E0,0E0,0E0,0E0,0E0],"parents":[2147483647,0,0,1,1,2,2,5,5,6,6,8,8,9,9,10,10],"right_children":[2,4,6,-1,-1,8,10,-1,12,14,16,-1,-1,-1,-1,-1,-1],"split_conditions":[4E-1,1E0,2E-1,-2.0076195E-3,-1.8118318E-2,1E0,3.6E0,-1.2556229E-2,1.6666666E0,2.6E0,6.666667E-1,2.1004466E-2,-1.0899429E-3,-4.3973546E-3,6.3558633E-4,-2.623741E-3,2.6966738E-2],"split_indices":[4,0,3,0,0,2,2,0,0,3,1,0,0,0,0,0,0],"split_type":[0,0,0,0,0,0,0,0,0,0,0,0,0,0,0,0,0],"sum_hessian":[6.341023E2,9.764826E0,6.2433746E2,1.6617209E0,8.103105E0,9.495514E0,6.14842E2,1.5690123E0,7.9265013E0,6.112916E2,3.5503368E0,6.337273E0,1.5892285E0,5.6239215E2,4.889948E1,1.7071669E0,1.84317E0],"tree_param":{"num_deleted":"0","num_feature":"6","num_nodes":"17","size_leaf_vector":"1"}},{"base_weights":[1.082322E-1,-5.7336107E-2,2.4631083E-1,4.0170036E-2,-2.857731E-1,2.873676E-1,-3.8850214E-2,1.3339383E-2,4.3474317E-1,-1.7766197E-1,-5.084094E-1,2.4493831E-1,5.2473277E-1,-5.7549596E-1,1.1986846E-1,-1.1287837E-2,1.0752525E-3,-3.7444665E-3,2.0905852E-2,-1.3041301E-2,-2.1532893E-3,-1.9758506E-2,-1.2165847E-2,1.2478974E-3,7.971423E-3,9.900863E-3,2.358146E-2,-7.3050116E-3,-1.9213302E-2,-1.3225661E-2,9.071644E-3],"categories":[],"categories_nodes":[],"categories_segments":[],"categories_sizes":[],"default_left":[0,0,0,0,0,0,0,0,0,0,0,0,0,0,0,0,0,0,0,0,0,0,0,0,0,0,0,0,0,0,0],"id":41,"left_children":[1,3,5,7,9,11,13,15,17,19,21,23,25,27,29,-1,-1,-1,-1,-1,-1,-1,-1,-1,-1,-1,-1,-1,-1,-1,-1],"loss_changes":[1.6944317E1,7.530462E0,4.74098E0,2.508115E0,2.3432608E0,3.4292717E0,4.4747586E0,1.9717857E0,2.2998586E0,1.8630219E0,2.3533058E-1,1.262949E0,2.4216652E0,1.02344275E-1,4.303467E0,0E0,0E0,0E0,0E0,0E0,0E0,0E0,0E0,0E0,0E0,0E0,0E0,0E0,0E0,0E0,0E0],"parents":[2147483647,0,0,1,1,2,2,3,3,4,4,5,5,6,6,7,7,8,8,9,9,10,10,11,11,12,12,13,13,14,14],"right_children":[2,4,6,8,10,12,14,16,18,20,22,24,26,28,30,-1,-1,-1,-1,-1,-1,-1,-1,-1,-1,-1,-1,-1,-1,-1,-1],"split_conditions":[1.3333334E0,1.75E0,2.4E0,2.8E0,2.25E0,2.6E0,8E-1,6E-1,6.666667E-1,8E-1,2.6E0,6.666667E-1,2.6666667E0,1.5E0,1.5E0,-1.1287837E-2,1.0752525E-3,-3.7444665E-3,2.0905852E-2,-1.3041301E-2,-2.1532893E-3,-1.9758506E-2,-1.2165847E-2,1.2478974E-3,7.971423E-3,9.900863E-3,2.358146E-2,-7.3050116E-3,-1.9213302E-2,-1.3225661E-2,9.071644E-3],"split_indices":[0,4,4,5,3,0,5,5,4,1,3,5,1,0,1,0,0,0,0,0,0,0,0,0,0,0,0,0,0,0,0],"split_type":[0,0,0,0,0,0,0,0,0,0,0,0,0,0,0,0,0,0,0,0,0,0,0,0,0,0,0,0,0,0,0],"sum_hessian":[7.395565E2,3.3656754E2,4.02989E2,2.364607E2,1.0010683E2,3.522633E2,5.072572E1,2.2237329E2,1.4087398E1,6.8595276E1,3.1511553E1,3.005683E2,5.1695015E1,1.0978907E1,3.974681E1,1.1283994E1,2.1108931E2,4.661041E0,9.426356E0,1.910661E1,4.9488667E1,1.0613703E1,2.089785E1,2.8141117E1,2.7242715E2,3.091987E1,2.0775145E1,2.5734177E0,8.405489E0,9.413121E0,3.0333693E1],"tree_param":{"num_deleted":"0","num_feature":"6","num_nodes":"31","size_leaf_vector":"1"}},{"base_weights":[1.1837994E-3,1.7040777E-1,-1.0420378E-1,-1.7593604E-1,2.462901E-1,-3.2188635E-2,-2.3468563E-1,4.762838E-1,-2.2594321E-1,4.9633113E-1,1.9600762E-1,3.8185887E-2,-1.9872372E-1,-3.524513E-1,-5.1503247E-3,4.3100413E-4,2.1502024E-2,-4.908496E-3,-1.7032258E-2,-6.294796E-3,1.6478729E-2,-1.306818E-3,7.091962E-3,2.5084561E-3,-3.1560648E-3,-3.988989E-3,-1.1062178E-2,-1.1277817E-2,3.0527818E-3,1.2573701E-2,-3.4723748E-3],"categories":[],"categories_nodes":[],"categories_segments":[],"categories_sizes":[],"default_left":[0,0,0,0,0,0,0,0,0,0,0,0,0,0,0,0,0,0,0,0,0,0,0,0,0,0,0,0,0,0,0],"id":42,"left_children":[1,3,5,7,9,11,13,15,17,19,21,23,25,27,29,-1,-1,-1,-1,-1,-1,-1,-1,-1,-1,-1,-1,-1,-1,-1,-1],"loss_changes":[1.2347879E1,7.0265465E0,4.001714E0,1.6841414E0,2.6482506E0,3.243307E0,4.0955954E0,4.0775275E-1,8.779502E-1,1.4581833E0,1.785574E0,1.2784784E0,8.6965895E-1,1.1063261E0,2.5079098E0,0E0,0E0,0E0,0E0,0E0,0E0,0E0,0E0,0E0,0E0,0E0,0E0,0E0,0E0,0E0,0E0],"parents":[2147483647,0,0,1,1,2,2,3,3,4,4,5,5,6,6,7,7,8,8,9,9,10,10,11,11,12,12,13,13,14,14],"right_children":[2,4,6,8,10,12,14,16,18,20,22,24,26,28,30,-1,-1,-1,-1,-1,-1,-1,-1,-1,-1,-1,-1,-1,-1,-1,-1],"split_conditions":[1.2E0,7.5E-1,2E0,1.25E0,6.666667E-1,1.75E0,1.6666666E0,1.2E0,3E0,5E-1,1E0,2E0,2.3333333E0,3E0,8E-1,4.3100413E-4,2.1502024E-2,-4.908496E-3,-1.7032258E-2,-6.294796E-3,1.6478729E-2,-1.306818E-3,7.091962E-3,2.5084561E-3,-3.1560648E-3,-3.988989E-3,-1.1062178E-2,-1.1277817E-2,3.0527818E-3,1.2573701E-2,-3.4723748E-3],"split_indices":[0,3,1,5,5,5,4,5,5,4,4,0,5,5,5,0,0,0,0,0,0,0,0,0,0,0,0,0,0,0,0],"split_type":[0,0,0,0,0,0,0,0,0,0,0,0,0,0,0,0,0,0,0,0,0,0,0,0,0,0,0,0,0,0,0],"sum_hessian":[6.903787E2,2.6470963E2,4.256691E2,4.7336548E1,2.1737308E2,2.7508932E2,1.5057977E2,2.763907E0,4.4572643E1,3.4909058E1,1.8246402E2,1.9391519E2,8.1174126E1,9.916603E1,5.1413746E1,1.309001E0,1.4549059E0,3.8949017E1,5.6236243E0,2.2287865E0,3.268027E1,2.6313658E1,1.5615036E2,1.475759E2,4.6339294E1,5.9819607E1,2.1354517E1,9.445639E1,4.709643E0,1.0054049E1,4.1359695E1],"tree_param":{"num_deleted":"0","num_feature":"6","num_nodes":"31","size_leaf_vector":"1"}},{"base_weights":[-1.2478221E-1,-5.2325845E-1,-1.1775827E-1,-2.0204699E-3,-1.7995598E-2,3.7196097E-1,-1.2595683E-1,-1.2472567E-2,5.552568E-1,-1.3045424E-1,5.0372666E-1,2.0617813E-2,-1.0694757E-3,-1.8761156E-3,-4.841615E-3,-2.5992054E-3,2.6597327E-2],"categories":[],"categories_nodes":[],"categories_segments":[],"categories_sizes":[],"default_left":[0,0,0,0,0,0,0,0,0,0,0,0,0,0,0,0,0],"id":43,"left_children":[1,3,5,-1,-1,7,9,-1,11,13,15,-1,-1,-1,-1,-1,-1],"loss_changes":[1.7111273E0,3.325765E-1,2.55099E0,0E0,0E0,1.7501458E0,1.8050241E0,0E0,7.237394E-1,1.2727289E0,1.1077572E0,0E0,0E0,0E0,0E0,0E0,0E0],"parents":[2147483647,0,0,1,1,2,2,5,5,6,6,8,8,9,9,10,10],"right_children":[2,4,6,-1,-1,8,10,-1,12,14,16,-1,-1,-1,-1,-1,-1],"split_conditions":[4E-1,1E0,2E-1,-2.0204699E-3,-1.7995598E-2,1E0,3.6E0,-1.2472567E-2,1.6666666E0,1.2E0,6.666667E-1,2.0617813E-2,-1.0694757E-3,-1.8761156E-3,-4.841615E-3,-2.5992054E-3,2.6597327E-2],"split_indices":[4,0,3,0,0,2,2,0,0,4,1,0,0,0,0,0,0],"split_type":[0,0,0,0,0,0,0,0,0,0,0,0,0,0,0,0,0],"sum_hessian":[6.323779E2,9.68077E0,6.2269714E2,1.662786E0,8.017983E0,9.522569E0,6.1317456E2,1.5581634E0,7.9644055E0,6.0961334E2,3.561245E0,6.3768144E0,1.587591E0,1.9171065E2,4.179027E2,1.7053086E0,1.8559363E0],"tree_param":{"num_deleted":"0","num_feature":"6","num_nodes":"17","size_leaf_vector":"1"}},{"base_weights":[1.05584584E-1,-5.6324888E-2,2.4025446E-1,3.9362676E-2,-2.8142324E-1,2.8039324E-1,-3.927857E-2,1.3011834E-2,4.2652723E-1,-1.748088E-1,-5.023631E-1,2.3885892E-1,5.126768E-1,-5.1281357E-1,1.363592E-1,9.499271E-4,-1.3519305E-2,-3.7348545E-3,2.0529969E-2,-1.2885206E-2,-2.1072114E-3,-1.960531E-2,-1.1973578E-2,1.2094676E-3,7.7734664E-3,9.6473005E-3,2.3072165E-2,-1.9007975E-2,9.886249E-3,-1.5002375E-2,8.877994E-3],"categories":[],"categories_nodes":[],"categories_segments":[],"categories_sizes":[],"default_left":[0,0,0,0,0,0,0,0,0,0,0,0,0,0,0,0,0,0,0,0,0,0,0,0,0,0,0,0,0,0,0],"id":44,"left_children":[1,3,5,7,9,11,13,15,17,19,21,23,25,27,29,-1,-1,-1,-1,-1,-1,-1,-1,-1,-1,-1,-1,-1,-1,-1,-1],"loss_changes":[1.6165928E1,7.2737474E0,4.5507107E0,2.4172797E0,2.2842565E0,3.2921047E0,4.3681955E0,1.946134E0,2.2305174E0,1.8197477E0,2.423315E-1,1.204586E0,2.3403654E0,1.652797E0,4.05676E0,0E0,0E0,0E0,0E0,0E0,0E0,0E0,0E0,0E0,0E0,0E0,0E0,0E0,0E0,0E0,0E0],"parents":[2147483647,0,0,1,1,2,2,3,3,4,4,5,5,6,6,7,7,8,8,9,9,10,10,11,11,12,12,13,13,14,14],"right_children":[2,4,6,8,10,12,14,16,18,20,22,24,26,28,30,-1,-1,-1,-1,-1,-1,-1,-1,-1,-1,-1,-1,-1,-1,-1,-1],"split_conditions":[1.3333334E0,1.75E0,2.4E0,2.8E0,2.25E0,2.6E0,1.5E0,3.2E0,6.666667E-1,8E-1,2.6E0,6.666667E-1,2.6666667E0,1.5E0,8E-1,9.499271E-4,-1.3519305E-2,-3.7348545E-3,2.0529969E-2,-1.2885206E-2,-2.1072114E-3,-1.960531E-2,-1.1973578E-2,1.2094676E-3,7.7734664E-3,9.6473005E-3,2.3072165E-2,-1.9007975E-2,9.886249E-3,-1.5002375E-2,8.877994E-3],"split_indices":[0,4,4,5,3,0,1,2,4,1,3,5,1,5,5,0,0,0,0,0,0,0,0,0,0,0,0,0,0,0,0],"split_type":[0,0,0,0,0,0,0,0,0,0,0,0,0,0,0,0,0,0,0,0,0,0,0,0,0,0,0,0,0,0,0],"sum_hessian":[7.397886E2,3.3618518E2,4.036034E2,2.3648315E2,9.970202E1,3.5292325E2,5.0680126E1,2.2238126E2,1.4101903E1,6.8458565E1,3.1243454E1,3.011104E2,5.1812843E1,1.3192433E1,3.7487694E1,2.1467673E2,7.7045274E0,4.6596494E0,9.442254E0,1.902116E1,4.94374E1,1.0516981E1,2.0726473E1,2.815382E1,2.729566E2,3.0978071E1,2.0834772E1,1.1754741E1,1.437692E0,7.0872693E0,3.0400423E1],"tree_param":{"num_deleted":"0","num_feature":"6","num_nodes":"31","size_leaf_vector":"1"}},{"base_weights":[1.2292914E-3,1.6635998E-1,-1.01991884E-1,-1.7322326E-1,2.4035583E-1,-3.1368222E-2,-2.3047502E-1,4.714087E-1,-2.2289564E-1,4.8515704E-1,1.9108252E-1,3.7729114E-2,-1.9542362E-1,-3.4725854E-1,-4.019503E-3,4.4946297E-4,2.1236895E-2,2.531355E-3,-8.513819E-3,-6.241008E-3,1.6107727E-2,4.7357874E-3,1.45706E-2,1.185843E-4,6.7518596E-3,3.6843717E-3,-6.8126707E-3,-1.1833884E-2,-3.1990479E-3,1.2297754E-2,-3.377062E-3],"categories":[],"categories_nodes":[],"categories_segments":[],"categories_sizes":[],"default_left":[0,0,0,0,0,0,0,0,0,0,0,0,0,0,0,0,0,0,0,0,0,0,0,0,0,0,0,0,0,0,0],"id":45,"left_children":[1,3,5,7,9,11,13,15,17,19,21,23,25,27,29,-1,-1,-1,-1,-1,-1,-1,-1,-1,-1,-1,-1,-1,-1,-1,-1],"loss_changes":[1.1791506E1,6.727938E0,3.8555493E0,1.6481154E0,2.54774E0,3.1344712E0,3.9877386E0,3.9617693E-1,8.7388015E-1,1.4045572E0,1.7230248E0,1.2326047E0,8.5336447E-1,1.088172E0,2.3976512E0,0E0,0E0,0E0,0E0,0E0,0E0,0E0,0E0,0E0,0E0,0E0,0E0,0E0,0E0,0E0,0E0],"parents":[2147483647,0,0,1,1,2,2,3,3,4,4,5,5,6,6,7,7,8,8,9,9,10,10,11,11,12,12,13,13,14,14],"right_children":[2,4,6,8,10,12,14,16,18,20,22,24,26,28,30,-1,-1,-1,-1,-1,-1,-1,-1,-1,-1,-1,-1,-1,-1,-1,-1],"split_conditions":[1.2E0,7.5E-1,2E0,1.25E0,6.666667E-1,1.75E0,1.6666666E0,1.2E0,5E-1,5E-1,2.6E0,2.4E0,5E-1,1.6666666E0,8E-1,4.4946297E-4,2.1236895E-2,2.531355E-3,-8.513819E-3,-6.241008E-3,1.6107727E-2,4.7357874E-3,1.45706E-2,1.185843E-4,6.7518596E-3,3.6843717E-3,-6.8126707E-3,-1.1833884E-2,-3.1990479E-3,1.2297754E-2,-3.377062E-3],"split_indices":[0,3,1,5,5,5,4,5,4,4,4,4,4,2,5,0,0,0,0,0,0,0,0,0,0,0,0,0,0,0,0],"split_type":[0,0,0,0,0,0,0,0,0,0,0,0,0,0,0,0,0,0,0,0,0,0,0,0,0,0,0,0,0,0,0],"sum_hessian":[6.897921E2,2.6509232E2,4.246998E2,4.7189297E1,2.1790302E2,2.748606E2,1.498392E2,2.7686248E0,4.4420673E1,3.502827E1,1.8287474E2,1.939445E2,8.09161E1,9.850602E1,5.133318E1,1.3078325E0,1.4607922E0,7.2837205E0,3.713695E1,2.2243543E0,3.2803917E1,1.6572188E2,1.715286E1,1.6518295E2,2.876155E1,7.062261E0,7.3853836E1,8.181638E1,1.6689638E1,1.0087776E1,4.1245403E1],"tree_param":{"num_deleted":"0","num_feature":"6","num_nodes":"31","size_leaf_vector":"1"}},{"base_weights":[-1.222143E-1,-5.195095E-1,-1.15248166E-1,-2.0195765E-3,-1.7883152E-2,3.656243E-1,-1.23342395E-1,-1.2391396E-2,5.4533964E-1,-1.277871E-1,4.9480423E-1,2.0227904E-2,-1.0552794E-3,-3.6915233E-3,-1.7630827E-2,-2.625635E-3,2.6146274E-2],"categories":[],"categories_nodes":[],"categories_segments":[],"categories_sizes":[],"default_left":[0,0,0,0,0,0,0,0,0,0,0,0,0,0,0,0,0],"id":46,"left_children":[1,3,5,-1,-1,7,9,-1,11,13,15,-1,-1,-1,-1,-1,-1],"loss_changes":[1.6883755E0,3.2700658E-1,2.4664173E0,0E0,0E0,1.7016104E0,1.7461433E0,0E0,6.9749904E-1,1.2541447E0,1.0806477E0,0E0,0E0,0E0,0E0,0E0,0E0],"parents":[2147483647,0,0,1,1,2,2,5,5,6,6,8,8,9,9,10,10],"right_children":[2,4,6,-1,-1,8,10,-1,12,14,16,-1,-1,-1,-1,-1,-1],"split_conditions":[4E-1,1E0,2E-1,-2.0195765E-3,-1.7883152E-2,1E0,3.6E0,-1.2391396E-2,1.6666666E0,3.2E0,6.666667E-1,2.0227904E-2,-1.0552794E-3,-3.6915233E-3,-1.7630827E-2,-2.625635E-3,2.6146274E-2],"split_indices":[4,0,3,0,0,2,2,0,0,2,1,0,0,0,0,0,0],"split_type":[0,0,0,0,0,0,0,0,0,0,0,0,0,0,0,0,0],"sum_hessian":[6.3068085E2,9.599893E0,6.2108093E2,1.662724E0,7.937168E0,9.550019E0,6.1153094E2,1.5473444E0,8.002675E0,6.079528E2,3.5781271E0,6.416234E0,1.586441E0,6.030103E2,4.9424944E0,1.7071178E0,1.8710093E0],"tree_param":{"num_deleted":"0","num_feature":"6","num_nodes":"17","size_leaf_vector":"1"}},{"base_weights":[1.030418E-1,-5.5291116E-2,2.3440385E-1,3.87814E-2,-2.774135E-1,2.7372342E-1,-4.007218E-2,-9.861272E-2,1.1026048E-1,-1.7200842E-1,-4.9706006E-1,2.330165E-1,5.013625E-1,-5.0845754E-1,1.3291277E-1,-1.7624896E-2,-2.0669368E-3,2.304664E-3,1.2551024E-2,-1.2730339E-2,-2.0629368E-3,-1.9460205E-2,-1.1813581E-2,7.548218E-3,7.814818E-4,9.407047E-3,2.259999E-2,-1.8860366E-2,9.743713E-3,-1.4871099E-2,8.677729E-3],"categories":[],"categories_nodes":[],"categories_segments":[],"categories_sizes":[],"default_left":[0,0,0,0,0,0,0,0,0,0,0,0,0,0,0,0,0,0,0,0,0,0,0,0,0,0,0,0,0,0,0],"id":47,"left_children":[1,3,5,7,9,11,13,15,17,19,21,23,25,27,29,-1,-1,-1,-1,-1,-1,-1,-1,-1,-1,-1,-1,-1,-1,-1,-1],"loss_changes":[1.5424421E1,7.0484686E0,4.3836803E0,2.3430862E0,2.237245E0,3.1684113E0,4.251754E0,1.1477735E0,1.5820831E0,1.7768235E0,2.4566936E-1,1.1578121E0,2.2675085E0,1.6202028E0,3.9277804E0,0E0,0E0,0E0,0E0,0E0,0E0,0E0,0E0,0E0,0E0,0E0,0E0,0E0,0E0,0E0,0E0],"parents":[2147483647,0,0,1,1,2,2,3,3,4,4,5,5,6,6,7,7,8,8,9,9,10,10,11,11,12,12,13,13,14,14],"right_children":[2,4,6,8,10,12,14,16,18,20,22,24,26,28,30,-1,-1,-1,-1,-1,-1,-1,-1,-1,-1,-1,-1,-1,-1,-1,-1],"split_conditions":[1.3333334E0,1.75E0,2.4E0,1.25E0,2.25E0,2.6E0,1.5E0,4E-1,2.8E0,8E-1,2.6E0,2.25E0,2.6666667E0,1.5E0,8E-1,-1.7624896E-2,-2.0669368E-3,2.304664E-3,1.2551024E-2,-1.2730339E-2,-2.0629368E-3,-1.9460205E-2,-1.1813581E-2,7.548218E-3,7.814818E-4,9.407047E-3,2.259999E-2,-1.8860366E-2,9.743713E-3,-1.4871099E-2,8.677729E-3],"split_indices":[0,4,4,5,3,0,1,5,5,1,3,0,1,5,5,0,0,0,0,0,0,0,0,0,0,0,0,0,0,0,0],"split_type":[0,0,0,0,0,0,0,0,0,0,0,0,0,0,0,0,0,0,0,0,0,0,0,0,0,0,0,0,0,0,0],"sum_hessian":[7.399735E2,3.3580325E2,4.041703E2,2.3647679E2,9.932645E1,3.5352887E2,5.0641407E1,8.079547E1,1.5568132E2,6.8322586E1,3.100386E1,3.0161673E2,5.1912136E1,1.3135515E1,3.7505894E1,3.5538886E0,7.7241585E1,1.4156667E2,1.4114657E1,1.893466E1,4.9387928E1,1.042222E1,2.058164E1,2.7655923E2,2.5057514E1,3.1029922E1,2.0882215E1,1.1693832E1,1.4416829E0,7.0379243E0,3.0467968E1],"tree_param":{"num_deleted":"0","num_feature":"6","num_nodes":"31","size_leaf_vector":"1"}},{"base_weights":[1.3119633E-3,1.6246119E-1,-9.978497E-2,-1.7028344E-1,2.3457816E-1,-3.045898E-2,-2.2640231E-1,4.6614712E-1,-2.195704E-1,4.736571E-1,1.864019E-1,3.7378393E-2,-1.920526E-1,-3.4228095E-1,-2.805045E-3,4.6715865E-4,2.0954674E-2,-4.7511095E-3,-1.68039E-2,-6.22482E-3,1.573216E-2,-1.3736895E-3,6.763166E-3,2.454943E-3,-3.0989433E-3,-3.803232E-3,-1.0846013E-2,-1.0976738E-2,3.2943012E-3,1.205316E-2,-3.284439E-3],"categories":[],"categories_nodes":[],"categories_segments":[],"categories_sizes":[],"default_left":[0,0,0,0,0,0,0,0,0,0,0,0,0,0,0,0,0,0,0,0,0,0,0,0,0,0,0,0,0,0,0],"id":48,"left_children":[1,3,5,7,9,11,13,15,17,19,21,23,25,27,29,-1,-1,-1,-1,-1,-1,-1,-1,-1,-1,-1,-1,-1,-1,-1,-1],"loss_changes":[1.126045E1,6.4337864E0,3.721363E0,1.6092952E0,2.4388275E0,3.0285025E0,3.8886232E0,3.8413405E-1,8.547797E-1,1.3583622E0,1.6804547E0,1.2276335E0,8.5756254E-1,1.0954914E0,2.299051E0,0E0,0E0,0E0,0E0,0E0,0E0,0E0,0E0,0E0,0E0,0E0,0E0,0E0,0E0,0E0,0E0],"parents":[2147483647,0,0,1,1,2,2,3,3,4,4,5,5,6,6,7,7,8,8,9,9,10,10,11,11,12,12,13,13,14,14],"right_children":[2,4,6,8,10,12,14,16,18,20,22,24,26,28,30,-1,-1,-1,-1,-1,-1,-1,-1,-1,-1,-1,-1,-1,-1,-1,-1],"split_conditions":[1.2E0,7.5E-1,2E0,1.25E0,6.666667E-1,1.75E0,1.6666666E0,1.2E0,3E0,5E-1,1E0,2E0,2.3333333E0,3E0,8E-1,4.6715865E-4,2.0954674E-2,-4.7511095E-3,-1.68039E-2,-6.22482E-3,1.573216E-2,-1.3736895E-3,6.763166E-3,2.454943E-3,-3.0989433E-3,-3.803232E-3,-1.0846013E-2,-1.0976738E-2,3.2943012E-3,1.205316E-2,-3.284439E-3],"split_indices":[0,3,1,5,5,5,4,5,5,4,4,0,5,5,5,0,0,0,0,0,0,0,0,0,0,0,0,0,0,0,0],"split_type":[0,0,0,0,0,0,0,0,0,0,0,0,0,0,0,0,0,0,0,0,0,0,0,0,0,0,0,0,0,0,0],"sum_hessian":[6.891824E2,2.6544855E2,4.2373383E2,4.704121E1,2.1840735E2,2.7461575E2,1.4911809E2,2.7732372E0,4.426797E1,3.5148422E1,1.8325891E2,1.9395972E2,8.0656044E1,9.786765E1,5.125043E1,1.3065326E0,1.4667047E0,3.876649E1,5.501481E0,2.2229497E0,3.2925472E1,2.6350908E1,1.56908E2,1.4770424E2,4.625547E1,5.949043E1,2.1165611E1,9.319143E1,4.676225E0,1.0116528E1,4.1133904E1],"tree_param":{"num_deleted":"0","num_feature":"6","num_nodes":"31","size_leaf_vector":"1"}},{"base_weights":[-1.196957E-1,-1.3012034E-1,1.3136563E-1,-1.4543748E-1,5.050598E-2,3.6975004E-2,1.7328257E-2,-6.370001E-2,-1.915647E-1,4.1448724E-1,-7.864659E-2,1.6763546E-1,-3.9334592E-1,-1.5459861E-2,-1.1647799E-3,-4.1662147E-3,-8.857935E-3,2.2231525E-2,-2.4987694E-3,9.472067E-3,-5.7632336E-3,2.7146671E-2,7.740475E-4,-1.5934795E-2,1.0321847E-3],"categories":[],"categories_nodes":[],"categories_segments":[],"categories_sizes":[],"default_left":[0,0,0,0,0,0,0,0,0,0,0,0,0,0,0,0,0,0,0,0,0,0,0,0,0],"id":49,"left_children":[1,3,5,7,9,11,-1,13,15,17,19,21,23,-1,-1,-1,-1,-1,-1,-1,-1,-1,-1,-1,-1],"loss_changes":[1.6660175E0,1.6823301E0,1.0575716E0,2.0929384E0,2.2922392E0,1.314779E0,0E0,2.2595744E0,1.9065075E0,2.1340954E0,1.6858481E0,1.8315763E0,3.4085685E-1,0E0,0E0,0E0,0E0,0E0,0E0,0E0,0E0,0E0,0E0,0E0,0E0],"parents":[2147483647,0,0,1,1,2,2,3,3,4,4,5,5,7,7,8,8,9,9,10,10,11,11,12,12],"right_children":[2,4,6,8,10,12,-1,14,16,18,20,22,24,-1,-1,-1,-1,-1,-1,-1,-1,-1,-1,-1,-1],"split_conditions":[2.8E0,2.6E0,1E0,1.2E0,1E0,2.2E0,1.7328257E-2,4E-1,1.8E0,2.25E0,7.5E-1,6.666667E-1,1.25E0,-1.5459861E-2,-1.1647799E-3,-4.1662147E-3,-8.857935E-3,2.2231525E-2,-2.4987694E-3,9.472067E-3,-5.7632336E-3,2.7146671E-2,7.740475E-4,-1.5934795E-2,1.0321847E-3],"split_indices":[2,3,0,4,2,5,0,4,1,0,0,4,1,0,0,0,0,0,0,0,0,0,0,0,0],"split_type":[0,0,0,0,0,0,0,0,0,0,0,0,0,0,0,0,0,0,0,0,0,0,0,0,0],"sum_hessian":[6.290283E2,6.0441345E2,2.461489E1,5.573453E2,4.7068142E1,2.1211111E1,3.4037786E0,2.0192142E2,3.554239E2,1.174861E1,3.5319534E1,